-7.323926687240600586e-02,-5.514433979988098145e-02
-3.018010221421718597e-02,2.401577867567539215e-02
-1.251616925001144409e-01,-1.108866855502128601e-01
1.136782392859458923e-02,1.126359179615974426e-01
-5.740094184875488281e-02,4.784517362713813782e-02
8.141864091157913208e-02,7.027103751897811890e-02
1.057109832763671875e-01,-5.856141075491905212e-02
3.776722401380538940e-02,1.122091780416667461e-03
-7.645860314369201660e-02,7.064654678106307983e-02
-8.226383477449417114e-02,-7.183912210166454315e-03
-1.056273058056831360e-01,4.707907885313034058e-02
-1.222427934408187866e-01,7.903268188238143921e-02
1.525247395038604736e-01,4.339728876948356628e-02
-1.416301280260086060e-01,2.232204377651214600e-02
6.890549510717391968e-02,-2.261429792270064354e-03
1.278235614299774170e-01,4.482919722795486450e-02
-2.452545054256916046e-02,2.469725534319877625e-02
-8.462601155042648315e-02,7.225024700164794922e-02
-6.172409653663635254e-02,-1.094398647546768188e-02
-4.332327842712402344e-02,1.072171702980995178e-01
-1.927176862955093384e-02,-5.112223699688911438e-02
3.049210458993911743e-02,-4.427467659115791321e-02
-6.669023633003234863e-02,5.265402793884277344e-02
6.240540742874145508e-02,1.122533082962036133e-01
-5.865486338734626770e-02,2.335843630135059357e-03
5.476906150579452515e-02,4.523043055087327957e-03
-2.256084792315959930e-02,5.882816389203071594e-02
-9.385749697685241699e-02,-7.212907075881958008e-02
-9.763438254594802856e-02,8.572930842638015747e-02
-5.304633453488349915e-02,-4.385161679238080978e-03
-1.331875473260879517e-01,-6.432989239692687988e-02
-6.277175992727279663e-02,-7.685503363609313965e-02
-3.882061317563056946e-02,-8.046352863311767578e-02
-3.486001119017601013e-02,-2.065248638391494751e-01
-4.046188667416572571e-02,-3.854009136557579041e-02
-1.103627085685729980e-01,7.195201516151428223e-02
-6.898674368858337402e-02,-1.858949363231658936e-01
-7.009114325046539307e-02,-7.934784516692161560e-03
7.925409823656082153e-02,-3.426304459571838379e-02
2.148353867232799530e-02,-5.999632552266120911e-02
4.528608545660972595e-02,9.481052309274673462e-02
-1.779616437852382660e-02,2.261731401085853577e-02
-8.173834532499313354e-03,7.217584550380706787e-02
1.421354711055755615e-01,1.014093086123466492e-01
4.050605744123458862e-02,9.881836920976638794e-02
-1.239859759807586670e-01,-6.697747111320495605e-02
-9.969301521778106689e-02,2.467435784637928009e-02
-8.192225545644760132e-02,1.708638295531272888e-02
-1.762596704065799713e-02,-1.714102625846862793e-01
-8.427063003182411194e-04,7.115516811609268188e-02
8.068991452455520630e-02,1.521663665771484375e-01
6.206352263689041138e-03,6.416708696633577347e-03
6.689541041851043701e-02,6.007672473788261414e-02
1.132803335785865784e-01,-1.568539738655090332e-01
8.696411550045013428e-02,6.157468259334564209e-02
-1.838035434484481812e-01,-3.954364359378814697e-02
1.433137655258178711e-01,-7.633231580257415771e-03
-1.417709887027740479e-02,2.650595642626285553e-02
-2.600010484457015991e-02,-4.347721859812736511e-02
1.077213585376739502e-01,3.600218519568443298e-02
-2.155442722141742706e-02,-1.025320664048194885e-01
-2.755584008991718292e-02,-5.143115296959877014e-02
7.885317504405975342e-02,3.379028290510177612e-03
-3.531737253069877625e-02,3.833317011594772339e-02
4.824354127049446106e-02,-2.218397334218025208e-02
3.377338871359825134e-02,4.461808130145072937e-02
-1.164467781782150269e-01,1.038255840539932251e-01
-2.952510677278041840e-02,-4.007291421294212341e-02
3.404999151825904846e-02,1.139966845512390137e-01
1.537407096475362778e-02,-2.464620023965835571e-02
4.501441866159439087e-02,2.443697303533554077e-02
1.353847831487655640e-01,-8.003211021423339844e-02
-1.159653440117835999e-01,-1.085693314671516418e-01
7.439251244068145752e-02,2.118170820176601410e-02
-5.902527645230293274e-02,9.191595762968063354e-02
5.450852960348129272e-02,3.477156534790992737e-02
4.006411507725715637e-02,3.856026008725166321e-02
1.001565456390380859e-01,8.028415590524673462e-02
-1.175124291330575943e-02,1.634861677885055542e-01
-4.466368257999420166e-02,6.778392475098371506e-03
-8.852913044393062592e-03,1.686331778764724731e-01
7.287387549877166748e-02,-2.416026964783668518e-02
1.118819713592529297e-01,-5.880136787891387939e-02
4.783229902386665344e-02,-1.724414899945259094e-02
1.176267936825752258e-01,5.611441284418106079e-02
-7.838213443756103516e-02,1.355267409235239029e-02
-1.202212274074554443e-01,-2.701906114816665649e-02
-1.381378620862960815e-01,1.819586567580699921e-02
-9.670689702033996582e-02,1.212028414011001587e-01
5.614265799522399902e-02,-1.940956339240074158e-02
3.698143362998962402e-02,-9.635681658983230591e-02
1.847102120518684387e-02,8.030472695827484131e-02
-1.113085672259330750e-01,1.758488714694976807e-01
1.604656428098678589e-01,-1.289208680391311646e-01
1.289015449583530426e-02,5.729810521006584167e-02
-1.027501188218593597e-02,1.073509678244590759e-01
-2.445621229708194733e-02,-1.629454642534255981e-01
-2.733766101300716400e-02,1.745721697807312012e-02
9.559441357851028442e-02,2.008725143969058990e-02
3.431507200002670288e-02,1.696821488440036774e-02
-1.521225459873676300e-02,2.957367710769176483e-02
-2.997376397252082825e-02,1.797678694128990173e-02
-1.670375093817710876e-02,-1.521240025758743286e-01
-8.075116574764251709e-02,6.293494254350662231e-02
-1.242346409708261490e-02,-3.397876024246215820e-02
9.067637473344802856e-02,5.008415877819061279e-02
-8.423853665590286255e-02,9.096531569957733154e-02
8.872348815202713013e-02,-7.824651151895523071e-02
1.101274415850639343e-01,2.010401710867881775e-02
-1.289743036031723022e-01,-4.128653183579444885e-02
-6.227466464042663574e-02,3.852488845586776733e-02
-6.175818294286727905e-02,4.832490161061286926e-02
-1.636605113744735718e-01,-2.253828197717666626e-02
-5.802813172340393066e-02,-1.227660775184631348e-01
-7.800019532442092896e-02,5.397954955697059631e-02
5.596698261797428131e-03,-9.333133697509765625e-02
8.131898194551467896e-02,6.931598484516143799e-02
1.779538951814174652e-02,4.182400181889533997e-02
3.790574893355369568e-02,1.585762947797775269e-02
6.150725483894348145e-02,5.514684319496154785e-02
-1.713231354951858521e-01,-3.290179371833801270e-02
1.072202324867248535e-01,8.906137198209762573e-02
-8.225832879543304443e-02,8.924881368875503540e-02
-7.285441458225250244e-02,6.984459608793258667e-02
3.209444694221019745e-03,2.022233605384826660e-01
1.605511605739593506e-01,1.613565832376480103e-01
-6.508383154869079590e-02,5.753568187355995178e-02
-1.888065040111541748e-01,2.076670974493026733e-01
2.843542397022247314e-02,-9.518353268504142761e-03
-1.144886985421180725e-01,-6.523536890745162964e-02
5.970356985926628113e-02,-1.226890459656715393e-01
1.353084146976470947e-01,1.043134480714797974e-01
1.297725737094879150e-02,-4.380685277283191681e-03
8.480063825845718384e-02,-4.026376083493232727e-02
-2.610122598707675934e-02,-2.449733391404151917e-02
-1.193245947360992432e-01,-9.613627940416336060e-02
6.924485415220260620e-02,3.635389730334281921e-02
-2.540546655654907227e-02,-1.899386383593082428e-02
-1.399896293878555298e-01,-4.442057106643915176e-03
8.859661221504211426e-02,5.550536140799522400e-02
9.127113968133926392e-02,1.976774260401725769e-02
1.564163863658905029e-01,-1.071299426257610321e-02
1.019289195537567139e-01,-8.381520956754684448e-02
2.399221621453762054e-02,-3.968263510614633560e-03
-9.279520064592361450e-02,-1.664081066846847534e-01
8.184301108121871948e-02,-2.958946302533149719e-02
-3.470109030604362488e-02,1.566408425569534302e-01
2.322725392878055573e-02,7.931124418973922729e-03
9.679375216364860535e-04,-5.551793426275253296e-02
-9.634999185800552368e-02,-1.106919627636671066e-02
-1.041706092655658722e-02,-3.953729197382926941e-02
5.851845070719718933e-02,-8.939946070313453674e-03
1.198121253401041031e-02,-7.156720012426376343e-02
8.122868835926055908e-02,-1.310232430696487427e-01
1.777739450335502625e-02,2.768118679523468018e-02
5.499600991606712341e-02,-1.993375271558761597e-01
9.214375913143157959e-02,3.003632463514804840e-02
-2.775573916733264923e-02,6.688732653856277466e-02
-9.122585505247116089e-02,-1.774910539388656616e-01
-4.932746291160583496e-03,-5.417611449956893921e-02
1.365335006266832352e-02,5.319637060165405273e-02
9.723289869725704193e-03,-2.240803651511669159e-02
-7.863115519285202026e-02,-3.431860730051994324e-02
-8.119785226881504059e-03,1.743764057755470276e-02
-1.252550929784774780e-01,-8.911380916833877563e-02
-8.594723045825958252e-02,-4.699061065912246704e-02
9.582412987947463989e-02,-4.345291294157505035e-03
-2.908061072230339050e-02,-5.509224720299243927e-03
5.384370684623718262e-02,6.114316359162330627e-02
-8.188391476869583130e-02,9.939204901456832886e-03
-9.012267738580703735e-02,1.802257634699344635e-02
1.537179946899414062e-01,1.083339676260948181e-01
6.509834527969360352e-02,5.108663812279701233e-02
1.059704367071390152e-02,-1.868635416030883789e-01
-5.902866646647453308e-02,1.072472780942916870e-01
-1.017241328954696655e-01,5.218079686164855957e-02
1.177728399634361267e-01,8.248477429151535034e-02
-5.877902358770370483e-02,8.788168430328369141e-02
9.752282500267028809e-02,1.116065159440040588e-01
-5.916237831115722656e-02,1.003052219748497009e-01
-1.063285619020462036e-01,-4.793184623122215271e-02
8.387186564505100250e-03,6.300508230924606323e-02
-4.449107125401496887e-02,3.990088123828172684e-03
1.398056596517562866e-01,6.600907444953918457e-02
-2.214839868247509003e-02,-1.088881343603134155e-01
1.181889548897743225e-01,8.229391276836395264e-02
1.642059981822967529e-01,-1.187424641102552414e-02
2.656493149697780609e-02,7.240327075123786926e-03
5.436907336115837097e-02,1.042934879660606384e-01
6.259104609489440918e-02,1.296530216932296753e-01
8.485653996467590332e-02,9.176664054393768311e-02
1.826312392950057983e-02,7.746303454041481018e-03
-3.638090565800666809e-03,-1.196880564093589783e-01
-1.834470033645629883e-01,-1.099265813827514648e-01
-4.633836075663566589e-02,-1.093805059790611267e-01
8.259576745331287384e-03,1.237226799130439758e-01
-6.227294355630874634e-02,1.397174745798110962e-01
-4.526965320110321045e-02,6.914603710174560547e-02
1.650843620300292969e-01,-1.689519286155700684e-01
1.487025320529937744e-01,-2.136007882654666901e-03
-1.060422360897064209e-01,-5.915487557649612427e-02
-1.454456802457571030e-02,-8.705399930477142334e-02
-1.163226068019866943e-01,8.228789269924163818e-02
1.197834685444831848e-01,7.734489440917968750e-02
-6.666859239339828491e-02,6.396228820085525513e-02
-3.237682580947875977e-02,5.880082398653030396e-02
-6.361106038093566895e-02,2.233840338885784149e-02
-1.038183737546205521e-02,-6.231680512428283691e-02
-1.141565814614295959e-01,1.880828440189361572e-01
-7.440312951803207397e-02,4.764152690768241882e-03
-1.863925345242023468e-02,2.211516164243221283e-02
-3.522468358278274536e-02,1.931894123554229736e-01
7.333538681268692017e-02,1.202750131487846375e-01
2.723249420523643494e-02,-2.245954237878322601e-02
3.811405226588249207e-02,1.417738944292068481e-01
2.943059429526329041e-02,-6.235929578542709351e-02
-1.594601571559906006e-01,-1.366925388574600220e-01
5.002355203032493591e-02,1.231435611844062805e-01
1.152029559016227722e-01,1.048075929284095764e-01
6.431734561920166016e-02,-1.037125214934349060e-01
7.823352701961994171e-03,-7.318546622991561890e-02
-8.110252767801284790e-02,-1.196192651987075806e-01
1.112201064825057983e-01,9.524286538362503052e-02
1.613887697458267212e-01,-4.376428201794624329e-02
1.103377062827348709e-02,7.383183389902114868e-02
-1.513029932975769043e-01,-7.065293192863464355e-02
1.178797855973243713e-01,-6.636759638786315918e-02
6.383428722620010376e-02,1.129303202033042908e-01
-1.916112750768661499e-02,-5.438531935214996338e-02
-3.830874711275100708e-02,1.183456927537918091e-01
-1.746352463960647583e-01,2.007928304374217987e-02
-7.166718691587448120e-02,-1.505742073059082031e-01
-4.929970484226942062e-03,-4.581580311059951782e-02
-9.406466968357563019e-03,1.155492514371871948e-01
-2.012787945568561554e-02,5.869320593774318695e-03
-4.982680454850196838e-02,2.755016461014747620e-02
4.467568360269069672e-03,-1.189248636364936829e-03
1.062028668820858002e-02,5.567010119557380676e-02
-5.248404666781425476e-02,6.411251425743103027e-02
1.394671052694320679e-01,1.636265814304351807e-01
6.545771379023790359e-03,1.685954979620873928e-03
-1.538673043251037598e-01,6.669951975345611572e-02
5.683348327875137329e-02,5.523258447647094727e-02
-2.481071464717388153e-02,-6.745325028896331787e-02
-4.472509771585464478e-02,1.365536302328109741e-01
5.798118188977241516e-02,-2.158256014809012413e-03
4.104288667440414429e-02,1.655212342739105225e-01
-1.170060262084007263e-01,1.212084665894508362e-02
1.060120537877082825e-01,-1.011670604348182678e-01
-5.303097888827323914e-02,-2.244443446397781372e-01
-7.331857085227966309e-02,3.754453733563423157e-02
-2.590372972190380096e-02,8.464988321065902710e-02
-9.244336187839508057e-02,4.385907948017120361e-02
9.323102980852127075e-02,8.944659680128097534e-02
1.643792353570461273e-02,-4.610399156808853149e-02
1.358986198902130127e-01,-1.345120370388031006e-01
-6.960241496562957764e-02,-3.384779766201972961e-02
1.828790754079818726e-01,6.098512187600135803e-02
-3.583570569753646851e-02,6.357523798942565918e-02
2.233871631324291229e-02,2.107679285109043121e-02
5.456802900880575180e-03,5.407655984163284302e-02
-2.976545877754688263e-02,-3.800671547651290894e-02
3.748728707432746887e-02,-8.764943107962608337e-03
1.462216526269912720e-01,1.282572746276855469e-01
9.026401489973068237e-02,-9.064337611198425293e-02
9.367499500513076782e-02,3.576861694455146790e-02
-9.142140299081802368e-02,1.795964688062667847e-02
-7.155632227659225464e-02,-8.487831056118011475e-02
2.172278473153710365e-03,1.018888875842094421e-01
-1.525715086609125137e-02,7.706512510776519775e-02
8.284095674753189087e-02,-7.525189220905303955e-02
2.690882235765457153e-02,8.679089136421680450e-03
-4.706629738211631775e-02,6.204783916473388672e-02
4.344369843602180481e-02,9.040683507919311523e-03
-1.794116012752056122e-02,-1.104535907506942749e-01
-3.079187870025634766e-02,5.272965878248214722e-03
-1.546002179384231567e-01,-1.571386158466339111e-01
8.604203909635543823e-02,1.337470486760139465e-02
-8.472039550542831421e-02,-2.942811138927936554e-02
-6.317175179719924927e-02,8.261060714721679688e-02
-7.635818421840667725e-02,8.824791759252548218e-02
7.913079857826232910e-02,-2.779990900307893753e-03
-8.391465991735458374e-02,1.102575287222862244e-01
9.869867563247680664e-02,3.145867586135864258e-02
4.911033064126968384e-02,3.544043004512786865e-02
6.203591078519821167e-02,1.101448163390159607e-01
9.073038399219512939e-02,9.458167105913162231e-02
-1.706461459398269653e-01,-4.303966090083122253e-02
-8.875848352909088135e-02,-1.306695342063903809e-01
8.322263509035110474e-02,4.490684345364570618e-02
1.049927324056625366e-01,4.312332719564437866e-02
-3.840663284063339233e-02,-4.196147620677947998e-02
-7.892391830682754517e-02,-4.353768378496170044e-02
-1.104940474033355713e-01,-2.120104432106018066e-02
9.059730917215347290e-02,8.218844234943389893e-02
3.558610752224922180e-02,1.936772912740707397e-01
2.147089317440986633e-02,-5.156451836228370667e-02
-1.852236315608024597e-02,-1.450183335691690445e-02
4.500910639762878418e-03,3.508425131440162659e-02
-4.306444898247718811e-02,1.178314983844757080e-01
5.292718484997749329e-02,-1.058830991387367249e-01
9.381045401096343994e-02,5.126911215484142303e-03
-1.027152538299560547e-01,-3.620165400207042694e-03
4.938871413469314575e-02,3.694014251232147217e-02
-1.230103373527526855e-01,-9.419126436114311218e-03
8.546920865774154663e-02,1.981855835765600204e-03
7.986529171466827393e-02,5.744621530175209045e-02
-3.163723647594451904e-02,1.448360234498977661e-01
4.126295074820518494e-02,-8.411749452352523804e-02
1.389487925916910172e-02,-7.318609207868576050e-02
-3.017840348184108734e-02,-1.320010703057050705e-02
-1.474057435989379883e-01,-1.291839312762022018e-02
-1.087028235197067261e-01,8.814688771963119507e-03
7.585580646991729736e-02,-7.650521397590637207e-02
-2.222607657313346863e-02,6.192423403263092041e-02
-1.200188621878623962e-01,-2.111781388521194458e-03
-7.629150152206420898e-02,1.594268530607223511e-01
-7.525158673524856567e-02,-6.411322206258773804e-02
3.686797246336936951e-02,1.022443640977144241e-02
-1.798292249441146851e-02,4.541481658816337585e-02
-1.368687450885772705e-01,5.879848822951316833e-02
1.305318772792816162e-01,-1.823802739381790161e-01
4.147193580865859985e-02,6.695283949375152588e-02
4.482616484165191650e-02,3.385100886225700378e-02
-1.118726879358291626e-01,-5.349651724100112915e-02
-9.256793558597564697e-02,-1.164720132946968079e-01
5.265039205551147461e-02,8.007247745990753174e-02
6.690506637096405029e-02,-1.172401085495948792e-01
3.017475083470344543e-02,5.179414525628089905e-02
-9.087723493576049805e-02,9.285892546176910400e-02
1.448049303144216537e-02,1.177410706877708435e-01
-1.042065620422363281e-01,2.590580843389034271e-02
7.820325344800949097e-02,1.415248662233352661e-01
1.675220765173435211e-02,3.225540276616811752e-03
-8.861228823661804199e-02,-9.325928986072540283e-03
-1.047856640070676804e-02,-2.146699093282222748e-02
5.279776081442832947e-02,-5.623280256986618042e-02
1.218124926090240479e-01,-4.597178846597671509e-02
3.357845824211835861e-03,-6.258871406316757202e-02
-3.734247013926506042e-02,9.155221283435821533e-02
-5.353127792477607727e-02,-1.898103579878807068e-02
-2.297968044877052307e-02,1.779102981090545654e-01
4.403344914317131042e-02,2.270097844302654266e-02
-7.527601718902587891e-02,-1.315991878509521484e-01
-2.527994103729724884e-02,1.247257273644208908e-02
1.068558916449546814e-02,-1.691699922084808350e-01
4.971361532807350159e-02,-1.836550235748291016e-01
-7.821113802492618561e-03,-7.294012606143951416e-02
1.048553362488746643e-01,-1.976558566093444824e-02
1.456668823957443237e-01,-2.362512238323688507e-02
4.797904565930366516e-02,-1.075154915452003479e-01
7.226389646530151367e-02,-7.411853224039077759e-02
-4.068866744637489319e-02,-1.325034201145172119e-01
-7.529350370168685913e-02,1.795668154954910278e-02
-2.274835109710693359e-02,-8.397950232028961182e-02
2.272772043943405151e-02,-5.758193437941372395e-04
5.972408503293991089e-02,-8.707565069198608398e-02
4.965832829475402832e-02,2.842232771217823029e-02
-3.243308514356613159e-02,1.136742159724235535e-02
-6.357525289058685303e-02,8.347547054290771484e-02
7.633022218942642212e-02,6.433951854705810547e-02
1.184789836406707764e-01,1.882126331329345703e-01
-1.083544641733169556e-01,-1.343265268951654434e-02
7.949266582727432251e-02,2.294406294822692871e-02
4.233130312059074640e-04,4.821873083710670471e-02
2.606707625091075897e-02,-1.140034273266792297e-01
-4.130154103040695190e-02,6.996901333332061768e-02
-9.855398535728454590e-02,7.353646308183670044e-02
4.009259119629859924e-02,5.332317948341369629e-02
-4.996420070528984070e-02,3.412596136331558228e-02
4.907619222649373114e-05,1.624057292938232422e-01
-6.776350736618041992e-02,1.682073622941970825e-01
-4.157518222928047180e-02,4.210818186402320862e-02
-4.732698574662208557e-02,3.456524014472961426e-02
1.398101449012756348e-01,5.307021550834178925e-03
6.876853853464126587e-02,1.162999719381332397e-01
-1.537051349878311157e-01,1.484926417469978333e-02
-1.158444210886955261e-01,4.123961925506591797e-02
-2.703200094401836395e-02,5.183224007487297058e-02
-9.314758330583572388e-02,2.336677312850952148e-01
9.769514948129653931e-02,9.437718242406845093e-02
8.058030158281326294e-02,-5.546743795275688171e-02
-6.611718237400054932e-02,-1.187066957354545593e-01
-1.523104161024093628e-01,8.137801662087440491e-03
1.253475844860076904e-01,2.004255540668964386e-02
-1.081985384225845337e-01,7.582368701696395874e-02
8.303228765726089478e-02,-4.238603636622428894e-02
3.536409884691238403e-02,-1.005375981330871582e-01
1.592185497283935547e-01,-1.190398484468460083e-01
1.429046243429183960e-01,1.654990762472152710e-01
1.633771136403083801e-02,-1.819526106119155884e-01
2.339188382029533386e-02,-1.072540208697319031e-01
8.187682926654815674e-02,2.829775512218475342e-01
5.296270921826362610e-02,-1.611406505107879639e-01
8.824130147695541382e-02,7.767024636268615723e-02
1.388397365808486938e-01,1.342315673828125000e-01
-1.521590352058410645e-01,-1.591918468475341797e-01
-8.532544225454330444e-02,-5.204138532280921936e-02
1.283073425292968750e-01,2.829735875129699707e-01
-2.644488029181957245e-02,-9.602232277393341064e-02
-1.875997148454189301e-02,1.153799742460250854e-01
3.549075126647949219e-02,-7.841055840253829956e-02
5.058840289711952209e-02,1.775204017758369446e-02
1.407348271459341049e-02,-5.651359632611274719e-02
-6.091655045747756958e-02,-3.003075905144214630e-02
1.096250414848327637e-01,9.942497313022613525e-02
2.900512516498565674e-02,-2.741189906373620033e-03
5.899011716246604919e-02,1.005062647163867950e-02
-1.410981416702270508e-01,-9.379327297210693359e-02
-4.580346867442131042e-02,-9.328756481409072876e-03
1.140397489070892334e-01,-1.112149059772491455e-01
4.984382912516593933e-02,-9.319628775119781494e-02
7.802388817071914673e-02,-1.204534340649843216e-02
-4.244956746697425842e-02,8.323643356561660767e-02
1.819289638660848141e-03,-2.898664474487304688e-01
-6.663671880960464478e-02,-1.915063410997390747e-01
3.212856128811836243e-02,-8.290390670299530029e-02
-1.180439814925193787e-01,-8.853875845670700073e-02
1.750371456146240234e-01,3.848609747365117073e-03
-8.043067902326583862e-02,-1.336486041545867920e-01
9.876812994480133057e-02,-1.145434156060218811e-01
8.148545026779174805e-02,-3.000132180750370026e-02
2.359501458704471588e-02,-9.965008497238159180e-02
-2.525875158607959747e-02,-1.387223228812217712e-02
-8.403760939836502075e-02,-1.357067227363586426e-01
1.312061697244644165e-01,4.730788990855216980e-02
-1.020920574665069580e-01,-4.554353281855583191e-02
8.283862471580505371e-02,2.104140119627118111e-03
8.237274363636970520e-03,-9.045401960611343384e-02
9.504113346338272095e-02,2.425852417945861816e-02
-8.522845804691314697e-03,-1.060077697038650513e-01
4.524774476885795593e-02,2.287336857989430428e-03
-4.181560873985290527e-02,-1.299966722726821899e-01
5.401228368282318115e-02,5.772944912314414978e-02
2.080340310931205750e-02,2.049802690744400024e-01
7.756686955690383911e-02,2.969106286764144897e-02
-1.420150790363550186e-02,-3.745044022798538208e-02
1.562156826257705688e-01,1.059935986995697021e-01
6.833004951477050781e-02,-1.592392474412918091e-01
9.958117455244064331e-02,-2.211094833910465240e-02
5.908918380737304688e-02,-8.883701637387275696e-03
-1.073644589632749557e-02,-4.696235805749893188e-02
1.868887059390544891e-02,4.757171124219894409e-02
6.646029651165008545e-02,1.663565784692764282e-01
-1.851893402636051178e-02,-1.293538808822631836e-01
-9.796454012393951416e-02,-3.197431936860084534e-02
-5.801587551832199097e-02,-1.493135541677474976e-01
6.327082216739654541e-02,7.740461826324462891e-02
-9.115176275372505188e-03,-6.468195468187332153e-02
4.703457280993461609e-02,-2.561481669545173645e-02
-1.633268781006336212e-02,-7.792381942272186279e-02
1.150575056672096252e-01,-1.458081696182489395e-02
3.960885852575302124e-02,-1.427698880434036255e-01
-7.894393801689147949e-02,-2.688738889992237091e-02
1.026610881090164185e-01,6.183834746479988098e-02
-1.120682284235954285e-01,3.041761182248592377e-02
-3.753090649843215942e-02,-3.701266273856163025e-02
7.425199449062347412e-02,-1.258762925863265991e-01
-1.714247511699795723e-03,-8.241618424654006958e-02
-3.285427391529083252e-02,-1.124396473169326782e-01
-1.022651419043540955e-02,-1.556821614503860474e-01
-2.350306697189807892e-02,4.869807884097099304e-02
-4.839576780796051025e-03,-2.675853483378887177e-02
-2.204872108995914459e-02,2.928933501243591309e-02
3.236197680234909058e-02,3.766963630914688110e-02
-7.825521170161664486e-04,1.127610132098197937e-01
3.433603793382644653e-02,5.961906537413597107e-02
-1.992323808372020721e-02,-4.898270592093467712e-02
3.170662373304367065e-02,6.774017121642827988e-03
1.230552047491073608e-02,9.075985103845596313e-02
9.329897910356521606e-02,1.992387510836124420e-02
6.887575238943099976e-02,2.441847696900367737e-02
-8.052053302526473999e-02,1.458382904529571533e-01
-5.943177640438079834e-02,1.892533898353576660e-01
2.036391571164131165e-02,8.776845037937164307e-02
-1.132575944066047668e-01,-3.054680675268173218e-02
-1.620730906724929810e-01,1.383178215473890305e-02
-4.397669807076454163e-02,-1.008496247231960297e-02
-1.405207999050617218e-02,2.163318917155265808e-02
5.178152769804000854e-02,9.664517641067504883e-02
5.665912106633186340e-02,-1.071728616952896118e-01
-5.283243954181671143e-02,4.543737042695283890e-03
-8.658962696790695190e-02,-2.171017043292522430e-02
-1.203042045235633850e-01,3.247797116637229919e-02
1.049046516418457031e-01,-1.781569980084896088e-02
-1.156498417258262634e-01,-7.460850477218627930e-02
1.228488013148307800e-01,3.194721415638923645e-02
-1.145384013652801514e-01,1.719484627246856689e-01
5.754885077476501465e-02,1.364332530647516251e-02
1.197597943246364594e-02,1.170987561345100403e-01
-1.591096445918083191e-02,1.742162555456161499e-01
-3.280215337872505188e-02,2.551370859146118164e-02
-9.219224750995635986e-02,-8.632321655750274658e-02
-1.710989028215408325e-01,6.108563393354415894e-03
9.483979642391204834e-02,-4.626985266804695129e-02
6.693883985280990601e-02,1.543434560298919678e-01
1.660470850765705109e-02,-3.219746798276901245e-02
7.716980576515197754e-02,1.812495477497577667e-02
-1.868039742112159729e-02,-8.369518816471099854e-02
-1.067561581730842590e-01,1.586126536130905151e-02
1.392333302646875381e-03,1.017540618777275085e-01
-6.702981144189834595e-02,1.220948770642280579e-01
-6.169154495000839233e-02,7.630655169486999512e-02
-5.902187153697013855e-02,3.188613336533308029e-03
-2.653239108622074127e-02,6.498329341411590576e-02
1.395741105079650879e-01,4.945145454257726669e-03
-1.865188628435134888e-01,-4.761073365807533264e-02
-2.436650916934013367e-02,6.701482087373733521e-02
1.664687395095825195e-01,1.927265673875808716e-01
-1.024813503026962280e-01,9.871670603752136230e-02
7.491610944271087646e-02,-1.169346049427986145e-01
8.397874981164932251e-02,-9.601908922195434570e-02
1.053804531693458557e-01,2.425353042781352997e-02
-1.350277215242385864e-01,-2.137336693704128265e-02
7.216217368841171265e-02,9.784304350614547729e-02
-8.345451951026916504e-02,4.341308400034904480e-02
-7.994356751441955566e-02,-3.412081301212310791e-02
-3.502576425671577454e-02,-9.602152556180953979e-02
1.342806518077850342e-01,3.080738708376884460e-02
-1.651816442608833313e-02,-1.379244327545166016e-01
4.124998301267623901e-02,-3.486786410212516785e-02
-1.351230889558792114e-01,1.193356662988662720e-01
3.970069065690040588e-02,7.036429643630981445e-02
1.454885059501975775e-04,6.470188498497009277e-02
-1.581866852939128876e-02,3.609586739912629128e-03
-9.777233004570007324e-02,8.290227502584457397e-02
-1.405415218323469162e-02,-4.031705111265182495e-02
1.099042445421218872e-01,-7.901579886674880981e-02
-1.032990738749504089e-01,-1.679787226021289825e-02
-8.806718140840530396e-02,1.136478781700134277e-01
-1.973123103380203247e-02,-9.789076447486877441e-02
-3.480146080255508423e-02,3.660168498754501343e-03
8.570241183042526245e-02,-3.662274219095706940e-03
1.689909249544143677e-01,1.667335033416748047e-01
-6.510051339864730835e-02,-6.780849397182464600e-02
1.061319336295127869e-01,-4.758016020059585571e-02
2.840841934084892273e-02,-2.121820598840713501e-01
3.754847869277000427e-02,1.741591393947601318e-01
-8.509252965450286865e-02,2.833853848278522491e-02
4.838503524661064148e-02,4.772593826055526733e-02
9.015903621912002563e-02,-4.219250287860631943e-03
-6.534195505082607269e-03,-1.348656974732875824e-02
5.763242393732070923e-02,1.048724502325057983e-01
-5.800467357039451599e-02,6.446973234415054321e-02
-8.556426502764225006e-03,5.687502026557922363e-02
-2.542328089475631714e-02,-1.989116519689559937e-02
5.544628575444221497e-02,1.429355591535568237e-01
-2.312798611819744110e-02,3.685196116566658020e-02
7.713752239942550659e-02,5.075905099511146545e-02
-3.174729272723197937e-02,5.301373079419136047e-02
-2.176218107342720032e-02,1.381433308124542236e-01
-4.918260499835014343e-02,-7.032629847526550293e-02
-8.944393694400787354e-02,8.521358668804168701e-02
7.755881547927856445e-02,2.703932821750640869e-01
1.669816970825195312e-01,3.799147903919219971e-02
1.342013031244277954e-01,1.001387163996696472e-01
5.307328328490257263e-02,4.051459953188896179e-02
3.886787965893745422e-02,1.305527836084365845e-01
-1.853055506944656372e-02,1.325458586215972900e-01
3.348004817962646484e-02,2.066740095615386963e-01
-4.562042653560638428e-02,1.456582248210906982e-01
3.833249583840370178e-02,2.282173186540603638e-01
-2.989188022911548615e-02,1.424878137186169624e-03
6.811173167079687119e-03,1.581719666719436646e-01
-6.657456606626510620e-02,-3.975034877657890320e-02
5.500322580337524414e-02,-1.138163059949874878e-01
-1.001014336943626404e-01,-1.839861571788787842e-01
-3.820078214630484581e-03,-5.393962189555168152e-02
5.857614427804946899e-02,1.131606549024581909e-01
3.557608649134635925e-02,-2.510226517915725708e-02
-1.371836569160223007e-02,2.878423221409320831e-02
-1.023151651024818420e-01,-9.401961229741573334e-03
-8.791685104370117188e-02,-3.499164804816246033e-02
-9.986618161201477051e-02,8.670887351036071777e-02
4.348589479923248291e-02,6.253135204315185547e-02
-2.615693025290966034e-02,9.742070734500885010e-02
2.999911457300186157e-02,-7.255773246288299561e-02
6.238225474953651428e-02,-1.178873404860496521e-01
-3.292191401124000549e-02,-1.263464689254760742e-01
-8.935614675283432007e-02,-2.900395542383193970e-02
8.569744229316711426e-02,-1.575052291154861450e-01
5.821933504194021225e-03,9.855425357818603516e-02
9.609211236238479614e-02,-2.352878898382186890e-01
3.948985412716865540e-02,-1.448520459234714508e-02
4.633718356490135193e-02,-8.156196027994155884e-02
-6.845869123935699463e-03,8.871364407241344452e-03
-9.280708432197570801e-02,-6.867592036724090576e-02
9.287030249834060669e-02,1.456167548894882202e-01
-1.068557724356651306e-01,-1.637909444980323315e-03
-3.112025931477546692e-02,-6.109389662742614746e-02
-1.628313958644866943e-01,-9.250521659851074219e-02
-1.728443987667560577e-02,-2.128244005143642426e-02
-1.150325685739517212e-01,5.417651962488889694e-03
2.043611370027065277e-03,3.442419925704598427e-03
7.387642562389373779e-02,-1.544121354818344116e-01
3.793899714946746826e-02,5.377658177167177200e-03
-3.480863943696022034e-02,-5.185598973184823990e-03
-8.753959834575653076e-02,4.807778820395469666e-02
2.823978103697299957e-02,1.684191077947616577e-01
-3.651301935315132141e-02,1.364785283803939819e-01
6.798864156007766724e-02,3.887883946299552917e-02
-6.646465510129928589e-02,1.001093983650207520e-01
9.490193426609039307e-02,8.047426119446754456e-03
1.101710200309753418e-01,-1.223878376185894012e-02
-8.747997134923934937e-02,1.194168180227279663e-01
1.470520393922924995e-03,7.557763159275054932e-02
-2.538693882524967194e-02,7.986137270927429199e-02
1.835665106773376465e-02,2.565187215805053711e-02
-8.617266267538070679e-02,3.042153827846050262e-02
-8.906577527523040771e-02,4.249542579054832458e-02
1.349223405122756958e-01,1.619950309395790100e-02
-7.685409486293792725e-02,8.394046872854232788e-02
-1.089294478297233582e-01,2.494123578071594238e-02
-1.486490964889526367e-01,-5.136556550860404968e-02
-3.710854798555374146e-02,-1.083038076758384705e-01
9.815990179777145386e-02,5.686097592115402222e-02
5.898556858301162720e-02,1.545551270246505737e-01
3.003720752894878387e-02,1.580909788608551025e-01
-6.502290815114974976e-02,-6.223413720726966858e-02
1.654305867850780487e-02,1.377851981669664383e-02
-3.858931735157966614e-02,4.383640363812446594e-02
-5.993093829602003098e-03,8.587719500064849854e-02
1.101233959197998047e-01,-2.653851360082626343e-02
-1.412936449050903320e-01,9.394823014736175537e-02
1.734777726233005524e-02,-7.930469512939453125e-02
5.541853234171867371e-02,1.031719744205474854e-01
-2.314679138362407684e-02,3.286911174654960632e-02
9.849244356155395508e-02,1.969491094350814819e-01
1.216969043016433716e-01,-1.346538811922073364e-01
-4.621745273470878601e-02,1.737747155129909515e-02
-5.080831795930862427e-02,-1.506547629833221436e-01
-4.510116577148437500e-02,-2.543591335415840149e-02
-1.218717470765113831e-01,-6.361669301986694336e-02
-8.765968680381774902e-02,-2.247032523155212402e-01
-4.372591897845268250e-02,5.722742900252342224e-02
-1.252323389053344727e-02,-1.420926749706268311e-01
1.404724866151809692e-01,-1.076003909111022949e-01
-3.479841351509094238e-02,7.528368383646011353e-02
1.009502913802862167e-02,-3.537965938448905945e-02
-1.700523942708969116e-01,-1.495183706283569336e-01
-6.131151318550109863e-02,1.028313785791397095e-01
-1.388872414827346802e-01,-1.077625826001167297e-01
-2.600598335266113281e-02,-8.223585784435272217e-02
9.793450683355331421e-02,6.536345928907394409e-02
-2.405208721756935120e-02,1.784178614616394043e-01
-1.243058145046234131e-01,-5.343953520059585571e-02
3.281899169087409973e-02,-1.631249859929084778e-02
-5.068653449416160583e-02,5.744784325361251831e-02
-2.683809772133827209e-02,4.207951575517654419e-02
3.283757343888282776e-02,9.423126175533980131e-05
8.342383056879043579e-02,-4.810341820120811462e-02
-7.716978341341018677e-02,1.295952647924423218e-01
-1.261655092239379883e-01,7.989152520895004272e-02
6.788006424903869629e-02,9.951462037861347198e-03
1.027150154113769531e-01,4.155636206269264221e-02
-1.439412217587232590e-02,-9.949617832899093628e-02
-7.348341494798660278e-02,2.081691175699234009e-01
-4.122494161128997803e-02,1.330012232065200806e-01
1.038782969117164612e-01,-4.509753361344337463e-02
9.199330955743789673e-02,1.033312268555164337e-02
-3.587899357080459595e-02,1.030086260288953781e-02
-9.404876083135604858e-02,-4.949470516294240952e-03
7.968870340846478939e-04,-4.483606293797492981e-02
-1.650379896163940430e-01,-5.821433663368225098e-02
-2.948759496212005615e-02,8.570662140846252441e-02
2.158192917704582214e-03,1.418852508068084717e-01
2.324031107127666473e-02,-8.883690088987350464e-02
-1.386701017618179321e-01,-1.093310490250587463e-01
2.192285656929016113e-02,-2.601880021393299103e-02
1.211402043700218201e-01,1.226542070508003235e-01
1.047129482030868530e-01,1.205334290862083435e-01
-2.701876871287822723e-02,3.687746450304985046e-02
-5.336633324623107910e-02,1.280513405799865723e-01
-3.238103352487087250e-03,-9.721096605062484741e-02
1.732994616031646729e-01,-5.259003117680549622e-02
3.189144283533096313e-02,-1.376318931579589844e-01
-4.261512309312820435e-02,8.103852719068527222e-02
-7.072842214256525040e-03,3.970064222812652588e-02
-3.530187299475073814e-03,-5.015922337770462036e-02
1.550626009702682495e-01,3.502887859940528870e-02
-1.072524636983871460e-01,1.380506455898284912e-01
-3.168212994933128357e-02,-1.437887102365493774e-01
1.060998961329460144e-01,-4.440470039844512939e-02
1.802344918251037598e-01,-2.477059699594974518e-02
-2.597876358777284622e-03,-1.084071770310401917e-01
-7.033611088991165161e-02,1.348582655191421509e-02
1.409142017364501953e-01,-1.101716831326484680e-01
-1.548400986939668655e-02,1.035539209842681885e-01
-1.393099725246429443e-01,-1.337147653102874756e-01
4.114055482205003500e-04,-1.225019097328186035e-01
1.763628423213958740e-02,1.141335740685462952e-01
6.828706711530685425e-02,1.292585730552673340e-01
-3.245148062705993652e-02,6.834533065557479858e-03
7.141228020191192627e-02,8.624370396137237549e-02
-1.112055405974388123e-01,1.600496321916580200e-01
-9.840651415288448334e-03,2.471390739083290100e-02
-6.601293385028839111e-02,6.796427816152572632e-02
8.946444094181060791e-02,-2.583634341135621071e-05
1.173479259014129639e-01,-1.892570033669471741e-02
1.193003058433532715e-01,6.806969642639160156e-02
7.268498837947845459e-02,-7.109137624502182007e-02
9.601482748985290527e-02,8.730565011501312256e-02
-1.694553196430206299e-01,-1.504660993814468384e-01
4.990483168512582779e-03,-7.383149117231369019e-02
-7.301678415387868881e-04,8.051427453756332397e-02
-2.990430779755115509e-02,-1.299765110015869141e-01
-2.685272321105003357e-02,-8.278540521860122681e-02
1.014340296387672424e-01,1.355209499597549438e-01
4.467690363526344299e-02,-1.638036668300628662e-01
3.013865835964679718e-02,-1.691966056823730469e-01
1.499846130609512329e-01,-2.742648497223854065e-02
-4.855978116393089294e-02,5.256809294223785400e-02
-5.931010097265243530e-02,-1.880648732185363770e-02
-6.298736482858657837e-02,9.456975758075714111e-02
-1.378571391105651855e-01,5.908469110727310181e-02
1.034883856773376465e-01,-1.817989200353622437e-01
1.454047113656997681e-01,1.063348874449729919e-01
-1.399795711040496826e-01,-8.899754285812377930e-02
1.712804436683654785e-01,-2.496616356074810028e-02
-1.206613630056381226e-01,1.149791851639747620e-01
-9.410853683948516846e-02,-6.559066474437713623e-02
7.186098396778106689e-02,5.888412892818450928e-02
-3.434500843286514282e-02,-1.291336268186569214e-01
-1.711723394691944122e-02,1.379983574151992798e-01
1.190927159041166306e-02,-2.346254140138626099e-02
-7.715801149606704712e-02,-3.858044510707259178e-03
-9.973336756229400635e-02,4.211365245282649994e-03
6.540318578481674194e-02,-2.466889470815658569e-02
8.592566102743148804e-02,-1.970063894987106323e-01
1.647076457738876343e-01,-5.794540420174598694e-02
8.277606219053268433e-02,-5.573664605617523193e-02
3.511258214712142944e-02,1.171391755342483521e-01
4.468372091650962830e-03,8.059314638376235962e-02
1.082758605480194092e-01,4.184970632195472717e-03
6.101737916469573975e-02,-1.228846386075019836e-01
-1.190977767109870911e-01,-1.317711174488067627e-01
-6.223054230213165283e-02,-1.003740578889846802e-01
6.277211755514144897e-02,-1.805139146745204926e-02
-6.936445087194442749e-02,9.362918138504028320e-02
2.601674571633338928e-02,2.225234955549240112e-01
1.276682876050472260e-02,1.219160705804824829e-01
1.106576547026634216e-01,5.689976364374160767e-02
7.081679999828338623e-03,9.121114015579223633e-02
-2.789680287241935730e-02,3.585120895877480507e-03
-3.527709841728210449e-02,1.988846994936466217e-02
1.373952925205230713e-01,1.205142512917518616e-01
-9.650784730911254883e-02,1.852909773588180542e-01
-1.445547342300415039e-01,-1.233524270355701447e-02
-5.172586068511009216e-02,1.661837249994277954e-01
2.424889244139194489e-02,-1.038014143705368042e-02
-1.163652688264846802e-01,2.179124951362609863e-02
-5.042006447911262512e-02,3.777064010500907898e-02
9.478525072336196899e-02,-1.414334587752819061e-02
-1.594477146863937378e-01,-2.782231895253062248e-03
-4.075977578759193420e-02,1.692328900098800659e-01
-9.126459807157516479e-02,2.635438367724418640e-02
4.803695902228355408e-02,-2.335496619343757629e-02
-2.705843746662139893e-02,3.122971951961517334e-02
-8.203939534723758698e-03,-1.173258349299430847e-01
1.490298509597778320e-01,-1.235382184386253357e-01
4.011480137705802917e-02,1.301578432321548462e-01
9.494637139141559601e-03,-4.740684106945991516e-02
-1.692983806133270264e-01,1.936834119260311127e-02
3.005300462245941162e-02,2.703091502189636230e-02
1.534095592796802521e-02,1.439796760678291321e-02
-1.415605284273624420e-02,3.949116915464401245e-02
1.180716976523399353e-01,-6.503918021917343140e-02
1.770784407854080200e-01,-4.729971662163734436e-02
-9.418709576129913330e-02,-1.579762250185012817e-01
8.366785198450088501e-02,-6.011786684393882751e-02
4.671489819884300232e-02,-4.931195452809333801e-02
-1.373400092124938965e-01,1.580006070435047150e-02
-1.600284129381179810e-01,-1.540893316268920898e-02
1.484115719795227051e-01,2.716067135334014893e-01
-1.412010751664638519e-02,-8.485623635351657867e-03
-4.254045337438583374e-02,5.595611408352851868e-02
-1.595990173518657684e-02,1.128550618886947632e-01
3.169280290603637695e-02,1.326328217983245850e-01
2.494189143180847168e-02,1.071518883109092712e-01
-4.960863292217254639e-02,7.169573754072189331e-02
5.202602595090866089e-02,3.048400580883026123e-02
5.070188548415899277e-03,9.194355458021163940e-02
1.290586143732070923e-01,6.741906516253948212e-03
-1.528601255267858505e-02,8.847624808549880981e-02
-3.904836624860763550e-02,9.689120948314666748e-02
-9.836805611848831177e-02,-4.825981333851814270e-02
-1.612278670072555542e-01,9.816156700253486633e-03
1.921875751577317715e-03,-1.092205867171287537e-01
2.843281999230384827e-02,-1.192799583077430725e-01
-4.354471340775489807e-02,-8.798472583293914795e-02
-2.676686085760593414e-02,-8.469390869140625000e-02
-4.068697616457939148e-02,1.117994189262390137e-01
-4.982580430805683136e-03,-5.198195949196815491e-02
-1.109568998217582703e-01,-9.301843494176864624e-02
7.512383162975311279e-02,-9.176140651106834412e-03
5.598664283752441406e-02,-1.037209630012512207e-01
3.123922273516654968e-02,1.435674540698528290e-02
-2.635630778968334198e-02,1.127434819936752319e-01
-6.854543089866638184e-02,-1.113910749554634094e-01
-1.155858710408210754e-01,-9.349505603313446045e-02
4.202488809823989868e-02,1.441013254225254059e-02
6.496920716017484665e-03,1.209163758903741837e-02
1.663420945405960083e-01,-2.392648160457611084e-02
1.433867961168289185e-01,-3.350265696644783020e-02
-2.357618138194084167e-02,1.391509771347045898e-01
-2.980278059840202332e-02,2.561354637145996094e-02
8.005783893167972565e-03,9.451701492071151733e-02
-7.528142631053924561e-02,-1.250483244657516479e-01
1.049150750041007996e-01,-2.678163908421993256e-02
-1.070717871189117432e-01,1.253715157508850098e-01
-1.846976727247238159e-01,-1.874320878414437175e-04
4.151620715856552124e-02,1.252674013376235962e-01
1.050985231995582581e-02,-1.129256188869476318e-01
-9.917660057544708252e-02,-4.676095396280288696e-02
-2.106545865535736084e-02,-4.977307468652725220e-02
-5.256763473153114319e-02,-3.621092531830072403e-03
-1.077856495976448059e-02,6.525935232639312744e-02
8.602778613567352295e-02,2.194846421480178833e-02
8.975300937891006470e-03,-1.352868378162384033e-01
-3.925935924053192139e-02,-1.190488133579492569e-02
-3.019438497722148895e-02,-1.607929021120071411e-01
9.709955751895904541e-02,-1.737142801284790039e-01
3.339485824108123779e-02,9.032157063484191895e-02
-2.747095003724098206e-02,-4.195020720362663269e-02
-4.838066920638084412e-02,1.322030555456876755e-02
2.688385546207427979e-02,-8.088819682598114014e-02
4.494947195053100586e-02,8.470543473958969116e-02
-3.361684456467628479e-02,-9.138523042201995850e-02
1.026951670646667480e-01,-1.399385184049606323e-01
5.209898203611373901e-02,4.000747576355934143e-02
-1.438547298312187195e-02,-2.378248423337936401e-02
-1.465977877378463745e-01,-2.165731340646743774e-01
-4.689867421984672546e-02,-5.900261551141738892e-02
3.438659757375717163e-02,4.051674157381057739e-02
-4.804262518882751465e-02,-8.244623988866806030e-02
-7.267323089763522148e-04,-3.645968809723854065e-02
-3.573371842503547668e-02,1.493541151285171509e-01
1.454475969076156616e-01,-4.929151013493537903e-02
4.074009601026773453e-03,8.604082465171813965e-02
-1.825469732284545898e-02,-6.413404643535614014e-02
4.499773494899272919e-03,-6.736241281032562256e-02
-5.003952980041503906e-02,-4.830687306821346283e-03
2.625281689688563347e-03,-8.477938175201416016e-02
4.409173130989074707e-02,-1.089641600847244263e-01
-1.291324049234390259e-01,-1.379618942737579346e-01
-6.870830059051513672e-02,5.556533485651016235e-02
-1.516938805580139160e-01,-4.214797914028167725e-02
5.991144850850105286e-02,-1.550039499998092651e-01
8.961374312639236450e-02,-1.034672111272811890e-01
7.796596735715866089e-02,-9.203224629163742065e-02
-7.760065793991088867e-02,-8.967933058738708496e-02
-9.280448406934738159e-02,9.017585217952728271e-02
-8.886190503835678101e-02,-7.105341553688049316e-02
-1.877448111772537231e-01,5.875563621520996094e-02
1.086867898702621460e-01,5.874733626842498779e-02
2.626678347587585449e-02,2.725630067288875580e-03
-1.003372818231582642e-01,-5.256672576069831848e-02
7.808537222445011139e-03,1.202657725661993027e-02
-1.003138870000839233e-01,-1.182481423020362854e-01
-1.444440241903066635e-02,4.403246566653251648e-02
-1.862769722938537598e-01,7.932624220848083496e-02
2.615480124950408936e-02,7.174012809991836548e-02
-1.122491434216499329e-02,9.199167042970657349e-02
-8.229064196348190308e-02,-2.832425571978092194e-02
-2.117061521857976913e-03,3.438510745763778687e-02
-5.316857621073722839e-02,3.364454256370663643e-03
7.286129146814346313e-02,7.763619069010019302e-03
-4.208523780107498169e-02,-5.007458105683326721e-02
-1.015693098306655884e-01,5.258579924702644348e-02
-8.035714179277420044e-02,1.934196799993515015e-03
-6.948598474264144897e-02,-1.157599315047264099e-01
2.653628773987293243e-02,-4.711788147687911987e-02
-7.496804744005203247e-02,1.420840434730052948e-02
6.526850908994674683e-02,2.126031788066029549e-03
-5.795388296246528625e-02,-9.410361200571060181e-02
1.983720622956752777e-02,-1.876257918775081635e-02
-4.068109393119812012e-02,-1.612646877765655518e-01
5.515021085739135742e-02,-2.234774455428123474e-02
1.053442433476448059e-01,8.546404540538787842e-03
1.024987846612930298e-01,-3.818535804748535156e-02
5.342464148998260498e-02,4.921625182032585144e-02
-7.399740815162658691e-02,1.448114365339279175e-01
-1.299258023500442505e-01,5.254549905657768250e-02
-8.383122086524963379e-02,1.237669736146926880e-01
-5.034169554710388184e-02,-1.527048945426940918e-01
-6.832113862037658691e-02,-3.317255899310112000e-02
-3.285403549671173096e-02,4.865231737494468689e-02
-7.127231452614068985e-03,-1.101836487650871277e-01
5.577249452471733093e-02,-4.505723714828491211e-02
-5.659493803977966309e-02,1.456122752279043198e-02
1.665865778923034668e-01,-4.518623650074005127e-02
-4.724457859992980957e-02,-7.021646946668624878e-03
4.232802987098693848e-02,1.013029664754867554e-01
4.009578004479408264e-02,-2.880296297371387482e-02
1.257014721632003784e-01,-1.894984841346740723e-01
5.691458284854888916e-02,-1.464509218931198120e-01
1.376430541276931763e-01,-5.612975731492042542e-02
2.922622673213481903e-02,4.918209090828895569e-02
8.442400395870208740e-02,6.777656078338623047e-02
-3.359603136777877808e-02,7.950218766927719116e-02
-5.460322275757789612e-02,-1.940762624144554138e-02
-9.052345156669616699e-02,-8.323867619037628174e-02
1.897281222045421600e-02,-9.197217226028442383e-02
-2.704141288995742798e-02,-5.202962458133697510e-02
-2.311581186950206757e-02,-1.130127348005771637e-02
-2.586364187300205231e-02,-4.914084076881408691e-02
-3.689125552773475647e-02,-5.653915181756019592e-02
-3.142738714814186096e-03,1.222111284732818604e-01
3.371717035770416260e-02,-9.866540133953094482e-02
6.922904402017593384e-02,2.503704652190208435e-02
1.036694347858428955e-01,-1.416416466236114502e-01
4.582226648926734924e-02,-7.940922677516937256e-02
-2.852928300853818655e-04,5.901482701301574707e-02
-8.064687997102737427e-02,-7.705247402191162109e-02
1.227314993739128113e-01,-1.454394757747650146e-01
-5.697140470147132874e-03,1.156960353255271912e-01
-2.000514790415763855e-02,8.703637123107910156e-02
-6.921178847551345825e-02,-4.145082831382751465e-02
4.122291877865791321e-02,4.416320472955703735e-03
-8.099934458732604980e-02,-2.679689414799213409e-02
1.161676421761512756e-01,-1.783705651760101318e-01
-3.788868663832545280e-03,2.257899940013885498e-02
4.342188686132431030e-02,-2.008830569684505463e-02
-1.228827312588691711e-01,-2.497633360326290131e-02
-2.543720416724681854e-03,-1.469303369522094727e-01
-4.591155052185058594e-02,7.132922112941741943e-02
1.892745122313499451e-02,-7.670274004340171814e-03
-2.258866652846336365e-02,-1.422875002026557922e-02
-6.280414760112762451e-03,-4.492424428462982178e-02
6.950079649686813354e-02,7.084345072507858276e-02
-5.837574973702430725e-02,1.082380712032318115e-01
-2.541069872677326202e-02,-4.036280885338783264e-02
-3.906148672103881836e-02,3.691891208291053772e-02
3.936651721596717834e-02,1.383539289236068726e-01
1.249065548181533813e-01,-1.137326750904321671e-02
-1.596575975418090820e-01,-1.027646381407976151e-02
-8.200120925903320312e-02,1.057185605168342590e-01
-1.408798247575759888e-01,4.524452984333038330e-02
-1.107361726462841034e-02,-5.029455199837684631e-02
-1.839421130716800690e-02,1.985207051038742065e-01
5.583423003554344177e-02,-4.950186121277511120e-04
-4.238484054803848267e-02,1.036623399704694748e-02
-3.385629877448081970e-02,1.735613495111465454e-01
-5.299330130219459534e-02,1.379336565732955933e-01
4.187250137329101562e-02,-6.693731248378753662e-02
-1.146717295050621033e-01,3.387729823589324951e-02
5.704653635621070862e-02,-1.293332036584615707e-02
3.415770083665847778e-02,-5.357631668448448181e-02
-1.327985376119613647e-01,-1.134741157293319702e-01
-8.381206542253494263e-02,-7.615321874618530273e-02
1.908958330750465393e-02,8.380454033613204956e-02
5.398143455386161804e-02,-1.345802098512649536e-01
1.412166059017181396e-01,-5.318503454327583313e-02
9.149970486760139465e-03,7.693738490343093872e-02
4.970449954271316528e-02,-1.258850656449794769e-02
-7.940942794084548950e-02,2.053163051605224609e-01
1.274132728576660156e-01,1.255695372819900513e-01
1.360760182142257690e-01,4.061629995703697205e-03
-1.064207479357719421e-01,-1.163063719868659973e-01
-1.780734211206436157e-01,4.013746604323387146e-02
-1.231346279382705688e-01,-5.446886271238327026e-02
-4.952262714505195618e-02,-2.531513944268226624e-02
-9.870627894997596741e-03,-1.390077620744705200e-01
-9.386337548494338989e-02,-1.065059080719947815e-01
1.534532457590103149e-01,1.269645988941192627e-02
3.598747774958610535e-02,-3.170685842633247375e-02
-5.096692591905593872e-03,6.732882000505924225e-03
-3.540881350636482239e-02,1.661384701728820801e-01
1.248613893985748291e-01,7.727573066949844360e-02
4.094817861914634705e-02,-1.528767198324203491e-01
-1.182622928172349930e-02,-5.909639596939086914e-02
-3.383604111149907112e-03,-9.229287505149841309e-02
9.047895669937133789e-02,-1.474446058273315430e-01
-2.049743942916393280e-02,-7.750548422336578369e-02
3.656088188290596008e-02,1.201117858290672302e-01
6.994682550430297852e-02,-1.529852207750082016e-02
1.068432852625846863e-01,9.480481594800949097e-02
-1.166182532906532288e-01,6.254221778362989426e-03
-8.959309756755828857e-02,-2.071090973913669586e-02
3.513173758983612061e-02,-3.230160474777221680e-02
6.617029011249542236e-02,-1.590159684419631958e-01
6.254360079765319824e-02,5.635515600442886353e-02
9.012424200773239136e-02,4.101762548089027405e-02
1.006220951676368713e-01,-1.160887908190488815e-02
4.513204097747802734e-02,1.446049362421035767e-01
-2.182725071907043457e-02,1.565375924110412598e-01
-2.582163549959659576e-02,1.406826525926589966e-01
1.562107950448989868e-01,4.861326515674591064e-02
1.229492481797933578e-02,5.060589313507080078e-02
-1.470659021288156509e-02,2.299860715866088867e-01
3.438236191868782043e-02,2.908731810748577118e-02
-4.892311245203018188e-02,-4.324612021446228027e-02
-4.590222961269319057e-04,-6.216166168451309204e-02
1.280475221574306488e-02,1.280889064073562622e-01
1.186799556016921997e-01,5.996168032288551331e-02
2.767443889752030373e-03,1.847145706415176392e-01
1.462792903184890747e-01,-3.757224977016448975e-02
-7.197420299053192139e-02,5.141510069370269775e-02
-1.169272959232330322e-01,-1.253477390855550766e-02
-4.765186831355094910e-02,-7.459421455860137939e-02
3.873488306999206543e-02,-1.410822290927171707e-02
5.857412517070770264e-02,1.839741505682468414e-02
3.559371689334511757e-03,1.365163326263427734e-01
-2.411754243075847626e-02,2.179361879825592041e-01
8.046456426382064819e-02,5.617330968379974365e-02
-6.868310272693634033e-02,9.272146970033645630e-03
1.485146880149841309e-01,3.491327166557312012e-02
5.451072379946708679e-02,-1.077859029173851013e-01
-8.634144440293312073e-03,1.541489064693450928e-01
1.509530283510684967e-02,-8.401668816804885864e-02
-8.921983838081359863e-02,-9.398842602968215942e-02
1.478543877601623535e-01,-1.300178170204162598e-01
8.079668134450912476e-02,-3.624635189771652222e-02
-6.176481395959854126e-02,-1.087504066526889801e-02
-4.014917183667421341e-03,5.094417184591293335e-02
3.974620625376701355e-02,9.730878472328186035e-02
-1.115397736430168152e-01,6.637664139270782471e-02
-1.013729944825172424e-01,1.881860010325908661e-02
-5.441018939018249512e-02,3.184057772159576416e-02
-1.068564727902412415e-01,7.327940315008163452e-02
-2.174762450158596039e-02,9.634474664926528931e-02
1.690720915794372559e-01,-7.685880362987518311e-02
-1.808254793286323547e-02,7.699122279882431030e-02
-1.336059067398309708e-03,7.450572401285171509e-02
1.449747681617736816e-01,-1.664549484848976135e-02
4.276252537965774536e-02,-8.669856935739517212e-02
-3.260779753327369690e-02,3.439560160040855408e-02
-1.983148790895938873e-02,6.699888408184051514e-02
-3.361155465245246887e-02,-1.312328428030014038e-01
-7.199427485466003418e-02,1.038680672645568848e-01
3.275727108120918274e-02,-2.126926369965076447e-02
4.876269772648811340e-02,8.146481961011886597e-02
-1.199872940778732300e-01,4.131286218762397766e-02
1.799046248197555542e-01,-3.353450074791908264e-02
7.072552293539047241e-02,1.679391562938690186e-01
-1.054849773645401001e-01,4.813744500279426575e-02
-1.741093117743730545e-03,-1.107372641563415527e-01
6.360851973295211792e-02,3.014156781136989594e-02
4.155631642788648605e-03,-2.519392222166061401e-02
-3.955066669732332230e-03,2.882039872929453850e-03
1.119081526994705200e-01,-1.645306944847106934e-01
1.566835045814514160e-01,1.075287014245986938e-01
2.075872942805290222e-02,1.960260048508644104e-02
1.703007817268371582e-01,2.423575706779956818e-02
-8.886436372995376587e-02,-4.628470912575721741e-02
4.183764010667800903e-02,3.980696201324462891e-02
5.287833511829376221e-02,8.419315516948699951e-02
5.638233944773674011e-02,9.819119423627853394e-02
-2.053498104214668274e-02,5.702587962150573730e-02
9.175054728984832764e-02,9.536211937665939331e-02
9.733603894710540771e-02,-1.160728186368942261e-02
-4.250349104404449463e-02,-2.901234664022922516e-02
2.252890914678573608e-02,-1.227692067623138428e-01
1.594903916120529175e-01,-1.639837399125099182e-02
-7.271266728639602661e-02,-2.006664872169494629e-03
-4.603734984993934631e-02,1.414487138390541077e-03
-1.497053056955337524e-01,-7.252546399831771851e-02
-1.193785481154918671e-02,1.482830755412578583e-02
9.612626582384109497e-02,-1.637665480375289917e-01
1.321815047413110733e-02,-1.648818515241146088e-02
2.939097397029399872e-02,-7.251393795013427734e-02
-1.615117676556110382e-02,-1.402309387922286987e-01
-6.242284551262855530e-02,-1.648800820112228394e-01
1.489098072052001953e-01,6.408405303955078125e-02
1.071243584156036377e-01,4.164274036884307861e-02
-1.648402363061904907e-01,-2.447320334613323212e-02
-2.901724725961685181e-02,6.230954453349113464e-02
-6.267096102237701416e-02,8.227992802858352661e-02
-5.724249780178070068e-02,4.997020959854125977e-02
-1.463651061058044434e-01,3.899470716714859009e-02
3.417630679905414581e-03,-1.419050842523574829e-01
-8.685197681188583374e-02,-1.117990761995315552e-01
-1.122567504644393921e-01,8.206092566251754761e-02
1.060947310179471970e-02,5.714408308267593384e-02
-7.248631864786148071e-02,2.278304100036621094e-02
-4.485398530960083008e-02,1.169361993670463562e-01
9.691587090492248535e-02,6.079979985952377319e-02
1.182685270905494690e-01,1.275383830070495605e-01
-8.996713161468505859e-02,9.665329754352569580e-02
3.951704129576683044e-03,-4.992108326405286789e-03
1.208253670483827591e-02,2.885992266237735748e-02
-8.611810207366943359e-02,1.378928422927856445e-01
-5.974183604121208191e-02,1.160509958863258362e-01
1.204334478825330734e-02,-8.385729975998401642e-03
6.928802281618118286e-02,6.723090261220932007e-02
-7.642657309770584106e-02,1.206637173891067505e-01
-8.357533067464828491e-02,-6.122929602861404419e-02
-6.288662552833557129e-02,-7.567139714956283569e-02
1.367956846952438354e-01,-1.562922000885009766e-01
9.908229112625122070e-02,1.159523241221904755e-02
-8.655909448862075806e-02,-8.869230747222900391e-02
3.868205100297927856e-02,6.792832911014556885e-02
2.291682362556457520e-02,-2.918008342385292053e-02
1.632423140108585358e-02,-1.923371665179729462e-02
-6.744214147329330444e-02,-4.597824881784617901e-04
-2.232684381306171417e-02,-7.021013647317886353e-02
9.825847297906875610e-02,1.240383274853229523e-02
6.167321000248193741e-03,-1.144700199365615845e-01
-1.552720814943313599e-01,3.820771351456642151e-03
-6.955327838659286499e-02,8.804334327578544617e-03
-9.015646576881408691e-02,-4.757910966873168945e-02
2.331461012363433838e-02,-7.983954623341560364e-03
1.242280099540948868e-02,-2.361314371228218079e-03
-1.278281062841415405e-01,6.630980968475341797e-02
-1.003284007310867310e-01,-4.334616288542747498e-02
2.135785669088363647e-02,-6.742829829454421997e-02
-1.401631534099578857e-01,-6.832341104745864868e-02
-4.753359407186508179e-02,1.602785587310791016e-01
-1.038166061043739319e-01,-2.125403285026550293e-02
-1.017933562397956848e-01,-7.674191147089004517e-02
-1.171999648213386536e-01,-2.539107017219066620e-02
-1.160567253828048706e-01,-1.300105005502700806e-01
7.515370845794677734e-02,-5.815253593027591705e-03
9.527482837438583374e-02,-4.442224651575088501e-02
-6.698963791131973267e-02,-1.360011100769042969e-01
-1.469474881887435913e-01,1.179297175258398056e-02
7.714485377073287964e-02,-5.560146644711494446e-02
-3.293269872665405273e-02,2.841648645699024200e-02
3.595319390296936035e-02,4.000614956021308899e-02
5.493279080837965012e-03,1.475085318088531494e-01
-1.252042949199676514e-01,-1.200793981552124023e-01
1.073706001043319702e-01,-9.422896802425384521e-02
-1.644263565540313721e-01,-3.085995465517044067e-02
-6.976561248302459717e-02,-1.760675013065338135e-02
-9.133125096559524536e-02,-3.725272789597511292e-02
3.233908489346504211e-02,-6.240060180425643921e-02
3.319868817925453186e-02,1.162328347563743591e-01
-5.593771487474441528e-02,-2.909171953797340393e-02
-2.228728868067264557e-02,5.858664959669113159e-02
2.047222480177879333e-02,-4.564414545893669128e-02
8.878818899393081665e-02,6.354559957981109619e-02
9.879849851131439209e-02,-9.854902327060699463e-02
-1.802792847156524658e-01,2.692252956330776215e-02
3.079306706786155701e-02,-1.959423571825027466e-01
1.329883486032485962e-01,-6.122505664825439453e-02
4.586042463779449463e-02,4.083160683512687683e-02
1.039595529437065125e-02,-1.401176676154136658e-02
5.553514137864112854e-02,-2.637112699449062347e-02
3.672936558723449707e-02,-1.226207017898559570e-01
5.110536515712738037e-02,1.937043503858149052e-03
4.618667066097259521e-02,-6.348823010921478271e-02
-2.681688405573368073e-02,4.322684556245803833e-02
-1.310701817274093628e-01,-1.070903241634368896e-01
-1.372867226600646973e-01,-8.133367635309696198e-03
-4.255346581339836121e-02,1.022710353136062622e-01
3.733007237315177917e-02,-1.166558712720870972e-01
8.106730133295059204e-02,1.919892267324030399e-03
7.140954583883285522e-02,9.715797379612922668e-03
1.769935712218284607e-02,4.161788383498787880e-04
-7.915587775642052293e-05,-1.942335395142436028e-03
7.154094427824020386e-02,6.807955354452133179e-02
-1.458394248038530350e-02,1.264977157115936279e-01
-1.131509318947792053e-01,-2.908183261752128601e-02
-1.014036312699317932e-01,-4.621779918670654297e-02
-4.546065628528594971e-02,-1.109729036688804626e-01
-8.058912307024002075e-02,-7.840242236852645874e-02
-3.251374140381813049e-02,3.007544390857219696e-02
7.369341701269149780e-02,1.651815623044967651e-01
-8.625890314579010010e-02,4.557816777378320694e-03
-2.690893225371837616e-02,4.086500033736228943e-02
9.636280685663223267e-02,1.020386740565299988e-01
4.775384441018104553e-03,-1.226361393928527832e-01
9.556017071008682251e-02,7.402902934700250626e-03
3.156727552413940430e-02,1.422359496355056763e-01
-6.385097745805978775e-03,-1.018392443656921387e-01
1.418870985507965088e-01,3.226608037948608398e-02
-7.403276860713958740e-02,-1.782063394784927368e-01
1.563354209065437317e-02,-8.841051161289215088e-02
-9.799237549304962158e-02,-6.915413588285446167e-02
7.374440878629684448e-02,-7.311891019344329834e-02
7.109194993972778320e-02,-9.985460340976715088e-02
1.679033637046813965e-01,-5.962884053587913513e-02
1.658692955970764160e-01,-9.357696026563644409e-02
2.465009503066539764e-02,6.581911444664001465e-02
3.299651294946670532e-02,-9.962470829486846924e-02
1.213920209556818008e-02,4.761933162808418274e-02
-7.701883465051651001e-02,-1.180429011583328247e-01
-6.292427331209182739e-02,-1.168643385171890259e-01
-6.762997061014175415e-02,9.506244212388992310e-03
-8.404249697923660278e-02,-6.058443337678909302e-02
2.783492952585220337e-02,-1.682058125734329224e-01
3.761811554431915283e-02,-8.743426948785781860e-02
-1.819972544908523560e-01,8.047127723693847656e-02
2.027022838592529297e-02,8.492236584424972534e-02
1.231126040220260620e-01,8.441878110170364380e-02
-1.237742900848388672e-01,-3.336028382182121277e-02
6.795652955770492554e-02,-6.440997868776321411e-02
-1.257042288780212402e-01,-1.347791254520416260e-01
1.014472171664237976e-01,1.033503115177154541e-01
-1.307639665901660919e-02,-9.429889172315597534e-02
6.388552486896514893e-02,2.672300674021244049e-02
-2.521259151399135590e-02,5.956581979990005493e-02
2.473751455545425415e-02,1.136429607868194580e-02
-9.826148301362991333e-02,-2.632608078420162201e-02
1.870489306747913361e-02,1.649596691131591797e-01
7.172790169715881348e-02,-6.274213548749685287e-03
9.844949841499328613e-02,3.061044029891490936e-02
8.531593531370162964e-02,-1.833182992413640022e-03
-1.264303177595138550e-02,1.599143892526626587e-01
-4.611477255821228027e-02,-8.550562895834445953e-03
5.323083139955997467e-03,1.906351596117019653e-01
9.546494483947753906e-02,2.338912524282932281e-02
-6.168606132268905640e-02,-1.225967779755592346e-01
1.177076771855354309e-01,-8.834303915500640869e-02
6.125721335411071777e-02,-5.978900939226150513e-02
8.255609869956970215e-02,3.054172173142433167e-02
-4.853324219584465027e-02,1.122836321592330933e-01
3.827743232250213623e-02,1.789918392896652222e-01
5.703053995966911316e-02,5.751365050673484802e-02
7.989120483398437500e-02,-5.781526491045951843e-02
-1.492689698934555054e-01,-3.171220794320106506e-02
7.248261012136936188e-03,6.366632878780364990e-02
3.240988403558731079e-02,1.141284927725791931e-01
-5.570054054260253906e-02,1.431936770677566528e-01
3.226869553327560425e-02,1.102403476834297180e-01
1.534211188554763794e-01,-9.972307085990905762e-02
3.283691778779029846e-02,-1.016082335263490677e-02
8.797255158424377441e-02,-4.607113078236579895e-02
1.067366451025009155e-01,-3.047267347574234009e-02
4.965844377875328064e-02,-5.096895247697830200e-02
-4.573719948530197144e-02,-5.417737364768981934e-02
1.064454317092895508e-01,-4.628463089466094971e-02
2.584682032465934753e-02,1.254297494888305664e-01
2.341579645872116089e-02,3.742894157767295837e-02
-4.377465322613716125e-02,-3.643873333930969238e-02
-4.130513593554496765e-02,-2.637350559234619141e-02
2.532063750550150871e-03,1.402420699596405029e-01
1.937842182815074921e-02,-8.831029385328292847e-02
7.869682461023330688e-02,3.584447503089904785e-02
-1.419447362422943115e-01,8.958882093429565430e-02
-8.884536474943161011e-02,-9.356078505516052246e-02
2.129803039133548737e-02,4.688439518213272095e-02
-6.123521924018859863e-02,-6.921165436506271362e-02
1.282693445682525635e-01,-6.775549799203872681e-02
-3.422075510025024414e-02,-5.195781122893095016e-03
1.439269185066223145e-01,-2.593195438385009766e-02
-2.509788610041141510e-02,-7.566113770008087158e-02
-6.605174392461776733e-02,1.123185176402330399e-02
2.981404215097427368e-02,3.916161507368087769e-02
-8.524306118488311768e-02,4.005328938364982605e-02
-5.298921465873718262e-02,-9.920407831668853760e-02
2.065382897853851318e-02,-1.763626337051391602e-01
-7.705691270530223846e-03,-1.433784514665603638e-02
-1.067113503813743591e-01,2.134288474917411804e-02
-1.416254490613937378e-01,-3.076876327395439148e-02
-6.852611899375915527e-02,-8.862937986850738525e-02
-9.468047879636287689e-03,4.386870935559272766e-02
1.043766140937805176e-01,-9.998959302902221680e-02
-1.086007133126258850e-01,-3.451995924115180969e-02
-1.469727903604507446e-01,1.435585319995880127e-02
-8.414237201213836670e-02,-3.840716090053319931e-04
-9.829919785261154175e-03,2.340456470847129822e-02
3.514071926474571228e-02,6.634379178285598755e-02
5.974563956260681152e-02,1.332546770572662354e-01
-3.268850222229957581e-02,-9.859822690486907959e-02
6.310944259166717529e-02,6.162006035447120667e-02
-1.672847755253314972e-02,9.941958636045455933e-02
-2.292434126138687134e-02,2.872563898563385010e-02
-8.429467678070068359e-02,-7.443816959857940674e-02
5.865603312849998474e-02,-1.200527474284172058e-01
-5.557407811284065247e-02,-1.348444074392318726e-01
-4.805088415741920471e-02,7.464112341403961182e-02
-7.961953431367874146e-02,2.733237110078334808e-02
8.380004018545150757e-02,-7.218870520591735840e-02
-2.434842661023139954e-02,1.637292504310607910e-01
8.640789426863193512e-03,1.408862620592117310e-01
6.097457185387611389e-02,-3.812269866466522217e-02
-8.900672197341918945e-03,5.825296416878700256e-02
6.192594394087791443e-02,-5.732914432883262634e-02
9.407109022140502930e-02,-8.513482660055160522e-02
-1.806972548365592957e-02,-3.774074092507362366e-02
1.171036809682846069e-01,-6.595581769943237305e-02
9.517943859100341797e-02,4.654750227928161621e-02
1.428445726633071899e-01,1.852851063013076782e-01
-8.357995189726352692e-03,4.966856911778450012e-02
-3.682667389512062073e-02,2.641511894762516022e-02
1.108535081148147583e-01,1.687419041991233826e-02
-3.806784003973007202e-02,-5.671615153551101685e-02
-2.775609493255615234e-02,-6.469306349754333496e-02
-8.384575694799423218e-02,-4.294330254197120667e-02
1.527957022190093994e-01,-9.531994909048080444e-02
6.167585402727127075e-02,-3.510573506355285645e-02
-1.292467415332794189e-01,-1.879242807626724243e-01
6.899967044591903687e-02,-3.840766847133636475e-02
-1.293646693229675293e-01,8.685901761054992676e-02
3.004507347941398621e-02,1.020790785551071167e-01
7.899495214223861694e-02,2.580262720584869385e-02
3.425269201397895813e-02,8.280406147241592407e-02
3.076227754354476929e-02,2.007600963115692139e-01
1.374356597661972046e-01,-6.278525292873382568e-02
-4.489666968584060669e-02,-3.091597929596900940e-02
-5.546726752072572708e-03,2.024970203638076782e-02
-1.341819576919078827e-02,1.044530346989631653e-01
1.263949722051620483e-01,-6.444233655929565430e-02
9.838980436325073242e-02,-1.463017016649246216e-01
-9.169119410216808319e-03,1.334288865327835083e-01
2.082840912044048309e-02,-1.321753114461898804e-01
-7.010591775178909302e-02,-1.955255419015884399e-01
-5.026669800281524658e-02,5.039555951952934265e-02
2.086787484586238861e-02,7.085774093866348267e-02
1.416804492473602295e-01,8.817199617624282837e-02
-8.469551056623458862e-02,1.256103068590164185e-01
7.554447650909423828e-02,-4.870121553540229797e-02
-9.546358883380889893e-02,9.923741966485977173e-02
-2.775611542165279388e-02,9.090932086110115051e-03
-7.286901236511766911e-04,9.309294074773788452e-02
-4.326457157731056213e-02,-3.825567290186882019e-02
-5.157729238271713257e-02,-5.702316761016845703e-02
6.153248995542526245e-02,5.578820407390594482e-02
8.529695123434066772e-02,-9.151016175746917725e-02
5.727941542863845825e-02,-9.995175153017044067e-02
1.374430805444717407e-01,-1.377366855740547180e-02
2.712796442210674286e-02,-3.932189568877220154e-02
6.857524067163467407e-02,7.967422157526016235e-02
-3.990241512656211853e-02,-1.053631007671356201e-01
-1.206476707011461258e-02,9.821619838476181030e-02
4.903567209839820862e-02,-7.812672108411788940e-02
6.669152528047561646e-02,1.205734610557556152e-01
3.931893408298492432e-02,-8.706425875425338745e-02
1.475997716188430786e-01,6.334602087736129761e-02
1.247248798608779907e-01,4.214955121278762817e-02
1.705895066261291504e-01,-5.086439661681652069e-03
1.018131971359252930e-01,4.625714570283889771e-02
-5.342283844947814941e-02,-1.558572798967361450e-02
-1.182047184556722641e-02,1.394045948982238770e-01
-2.553445845842361450e-02,-5.685680732131004333e-02
-1.463006734848022461e-01,3.047369793057441711e-02
-8.769851922988891602e-02,-1.753372102975845337e-01
9.599713981151580811e-02,-6.678295880556106567e-02
-9.195216000080108643e-02,1.679837852716445923e-01
-8.397722244262695312e-02,1.415807008743286133e-01
-1.291199307888746262e-02,-2.629715204238891602e-02
1.769665442407131195e-02,-4.467371106147766113e-02
-9.219900704920291901e-03,-8.506017923355102539e-02
5.900531634688377380e-02,-1.483425647020339966e-01
-8.427359908819198608e-02,3.238522261381149292e-02
-1.475576870143413544e-02,2.037501782178878784e-01
-3.530943766236305237e-02,6.377773731946945190e-02
2.719937823712825775e-03,-8.926247060298919678e-02
9.728938341140747070e-02,-3.275638446211814880e-02
-3.111947327852249146e-02,-2.406669594347476959e-02
-4.247891902923583984e-02,-7.164283655583858490e-03
-1.238341927528381348e-01,5.829787626862525940e-02
1.386684477329254150e-01,4.397736862301826477e-03
-6.271532922983169556e-02,-1.543938219547271729e-01
8.336246013641357422e-03,-9.319277107715606689e-02
-3.762931004166603088e-02,-2.510388195514678955e-01
6.995754688978195190e-02,-7.141804695129394531e-02
3.798379749059677124e-02,-6.822944432497024536e-02
-6.818981841206550598e-03,9.438648819923400879e-02
-2.201719023287296295e-02,-1.602055504918098450e-02
-1.353052407503128052e-01,8.397424966096878052e-02
-1.250431872904300690e-02,1.955210715532302856e-01
-5.578680336475372314e-02,7.856124639511108398e-02
1.066042110323905945e-01,1.276496350765228271e-01
-1.114460919052362442e-02,1.862219721078872681e-01
-3.949508816003799438e-02,9.259847551584243774e-02
1.690374920144677162e-03,1.415446400642395020e-03
1.400493551045656204e-02,2.370640784502029419e-01
-1.692587882280349731e-01,-1.678577810525894165e-01
-5.570659413933753967e-02,-6.520128250122070312e-02
-5.718218907713890076e-02,-2.026859147008508444e-04
-2.015463775023818016e-03,-9.842194616794586182e-02
2.681289799511432648e-03,-1.179317310452461243e-01
-2.656515454873442650e-03,-1.093224585056304932e-01
5.153305828571319580e-02,-3.629927709698677063e-02
-6.634015589952468872e-02,8.420489728450775146e-02
1.179692428559064865e-02,-4.442170262336730957e-03
-1.057849824428558350e-02,6.641442305408418179e-04
1.054505631327629089e-01,1.861206069588661194e-02
4.634553194046020508e-02,-8.615922927856445312e-02
5.792761221528053284e-03,-7.649224251508712769e-02
-7.265844382345676422e-03,-5.553802009671926498e-03
1.266718804836273193e-01,-2.061878591775894165e-01
-1.520728575997054577e-03,7.430136203765869141e-02
-7.480721920728683472e-02,-1.383164674043655396e-01
7.655858248472213745e-02,-1.916818693280220032e-02
4.641501978039741516e-02,-1.898490637540817261e-01
1.012024357914924622e-01,-2.411103844642639160e-01
2.850654721260070801e-02,-4.521129280328750610e-02
3.528484012349508703e-05,4.241625312715768814e-03
-2.694374509155750275e-02,-1.371486578136682510e-02
1.197613216936588287e-02,-1.401558220386505127e-01
9.282059222459793091e-02,-9.162752330303192139e-02
-4.447548836469650269e-02,3.469784976914525032e-03
-4.613642767071723938e-02,-9.218267351388931274e-02
8.692905306816101074e-02,5.794245749711990356e-02
9.543320536613464355e-02,2.432230859994888306e-01
-3.073057718575000763e-02,1.095014214515686035e-01
1.250594109296798706e-01,6.595667451620101929e-02
-9.473050385713577271e-02,-8.917745202779769897e-03
-5.928176641464233398e-02,-1.068734899163246155e-01
2.549448050558567047e-02,1.058102175593376160e-01
6.551603227853775024e-02,1.239392682909965515e-01
1.419796794652938843e-01,-5.736190825700759888e-02
1.162287779152393341e-02,-7.885554432868957520e-02
-1.633573174476623535e-01,3.159699589014053345e-02
3.686684742569923401e-02,-3.144670277833938599e-02
-2.766909822821617126e-02,-1.280385702848434448e-01
-6.279547512531280518e-02,5.375247821211814880e-02
-1.764522343873977661e-01,-2.147255092859268188e-01
1.244312338531017303e-02,-9.246452152729034424e-02
9.912780672311782837e-02,-6.573612242937088013e-02
3.070810437202453613e-02,6.613582372665405273e-02
-1.675183326005935669e-01,1.499290857464075089e-02
1.076562926173210144e-01,1.547627002000808716e-01
-1.573770046234130859e-01,-1.140739992260932922e-01
-1.251036375761032104e-01,-1.169550940394401550e-01
6.265695393085479736e-02,5.556217208504676819e-02
6.233078986406326294e-02,-9.240736812353134155e-02
-1.120563223958015442e-01,-3.219562768936157227e-02
-2.816758863627910614e-02,-5.993256811052560806e-03
2.316275238990783691e-02,-1.967367716133594513e-02
-1.044884100556373596e-01,-2.256525494158267975e-02
6.872341036796569824e-02,6.742979586124420166e-02
-9.735716134309768677e-02,-1.202764920890331268e-02
1.149958814494311810e-03,2.622957341372966766e-02
1.634143292903900146e-01,1.547906547784805298e-01
-2.146061323583126068e-02,-7.033140957355499268e-02
-5.169317871332168579e-02,-6.709453463554382324e-02
1.161349192261695862e-02,1.057663783431053162e-01
-1.557888686656951904e-01,9.039656817913055420e-02
5.720664188265800476e-02,2.026607980951666832e-03
-6.465130299329757690e-02,3.623072803020477295e-02
-5.545873194932937622e-02,-4.456122219562530518e-02
6.784695386886596680e-02,-2.729712286964058876e-03
1.109983026981353760e-01,-6.453464180231094360e-02
2.754129283130168915e-02,-1.099482923746109009e-01
1.137032955884933472e-01,1.399183273315429688e-01
-4.044013563543558121e-03,-1.213018596172332764e-02
3.790265321731567383e-02,-1.445390880107879639e-01
1.587791144847869873e-01,-5.264320597052574158e-02
-6.103640049695968628e-02,-5.513484776020050049e-02
1.223661974072456360e-01,6.778575014322996140e-03
-1.156517490744590759e-02,5.602711066603660583e-02
-8.841184526681900024e-02,5.727402493357658386e-02
-7.063639163970947266e-02,1.217171177268028259e-02
-3.520741686224937439e-02,2.728677727282047272e-02
-2.770124748349189758e-02,-1.241216436028480530e-01
-1.657209992408752441e-01,-1.318693161010742188e-02
1.994619704782962799e-02,2.370996214449405670e-02
1.527623981237411499e-01,-1.988466978073120117e-01
-1.429797261953353882e-01,-3.484624624252319336e-02
-7.781268656253814697e-02,-1.560969054698944092e-01
6.151031237095594406e-03,9.549846500158309937e-02
-5.403240770101547241e-02,3.915363550186157227e-02
7.375186681747436523e-02,1.278485357761383057e-01
2.843356318771839142e-02,5.584444478154182434e-02
1.657627150416374207e-02,-8.785095065832138062e-02
1.369676645845174789e-02,-3.958202525973320007e-02
1.427700668573379517e-01,-6.820848584175109863e-02
6.909322924911975861e-03,9.465798735618591309e-03
1.529859099537134171e-02,3.758305683732032776e-02
9.956193715333938599e-02,1.295551564544439316e-02
-6.964066624641418457e-02,3.443755209445953369e-02
-1.314850151538848877e-01,-7.021499797701835632e-03
-1.306392848491668701e-01,3.081307932734489441e-02
-1.159078031778335571e-01,4.128702729940414429e-02
3.440992906689643860e-02,7.685335725545883179e-02
7.799817714840173721e-03,-9.711419790983200073e-02
-1.067301817238330841e-02,3.666475415229797363e-02
1.341448575258255005e-01,1.227153465151786804e-02
3.738022595643997192e-02,-1.452877465635538101e-02
-1.424634605646133423e-01,6.788216531276702881e-02
-5.862551182508468628e-02,5.427832901477813721e-02
1.049895063042640686e-01,1.173395430669188499e-04
1.383187174797058105e-01,7.856500335037708282e-03
-8.482877910137176514e-02,-1.296322345733642578e-01
9.810911864042282104e-02,3.403409570455551147e-02
-1.100276410579681396e-01,1.722032874822616577e-01
-1.017637252807617188e-01,-1.783407032489776611e-01
6.632759422063827515e-02,-1.942862570285797119e-02
-1.531338244676589966e-01,-4.600294306874275208e-02
2.706775441765785217e-02,-1.204281672835350037e-01
1.328513622283935547e-01,5.369141325354576111e-02
-1.126515492796897888e-01,-1.098392382264137268e-01
-3.819346800446510315e-02,-1.345646684058010578e-03
-5.234631150960922241e-02,-3.163648070767521858e-03
3.078223019838333130e-02,1.328623294830322266e-01
5.458021163940429688e-02,2.924758568406105042e-02
-1.609479039907455444e-01,4.654884710907936096e-02
6.234094500541687012e-02,1.045450642704963684e-01
-8.052499592304229736e-02,-7.586479187011718750e-02
8.169151842594146729e-02,-1.537104398012161255e-01
1.680462062358856201e-01,-7.333821803331375122e-02
-2.217698469758033752e-02,-1.206965371966362000e-01
6.992760300636291504e-02,2.554875798523426056e-02
1.218662783503532410e-01,-1.152214184403419495e-01
-1.284788250923156738e-01,-2.447158545255661011e-01
3.168201446533203125e-02,-1.078279763460159302e-01
9.992296248674392700e-02,5.971222999505698681e-04
6.709113717079162598e-02,2.176854014396667480e-02
6.090614199638366699e-02,-5.428250879049301147e-02
-2.095000073313713074e-02,-5.290354788303375244e-02
2.430598251521587372e-03,-1.546595096588134766e-01
1.352813839912414551e-02,-5.982702597975730896e-02
2.983626723289489746e-02,-3.532128408551216125e-02
-9.432500600814819336e-02,-2.030117996037006378e-02
-2.198624610900878906e-02,-7.162397261708974838e-03
-6.428749300539493561e-03,-1.073355823755264282e-01
1.451367586851119995e-01,8.813571184873580933e-02
1.810806989669799805e-02,2.094348333775997162e-02
1.458433866500854492e-01,6.982211023569107056e-02
-7.029699534177780151e-02,-9.299889951944351196e-02
-2.306571789085865021e-02,-1.242609247565269470e-01
-1.105010807514190674e-01,-1.163574978709220886e-01
4.663228243589401245e-02,-2.177251316606998444e-02
7.807569950819015503e-02,-1.187458336353302002e-01
-6.804082542657852173e-02,1.322679128497838974e-02
2.346102334558963776e-02,-1.367032676935195923e-01
-8.362561464309692383e-02,-1.068591400980949402e-01
-5.593921989202499390e-02,-1.432833969593048096e-01
1.444538980722427368e-01,-9.101340919733047485e-02
4.601334035396575928e-02,-1.215940788388252258e-01
-1.071469206362962723e-02,-1.740859001874923706e-01
-2.206680364906787872e-02,-2.854976616799831390e-02
1.042080000042915344e-01,5.764842405915260315e-02
-3.869850188493728638e-02,3.489446593448519707e-03
1.121152117848396301e-01,-1.590523123741149902e-01
3.988947719335556030e-02,7.542372494935989380e-02
6.059757620096206665e-02,2.757115056738257408e-03
-3.624437004327774048e-02,3.588080406188964844e-02
-1.027273684740066528e-01,8.397359400987625122e-02
-7.941213995218276978e-02,7.340978085994720459e-02
8.344593457877635956e-03,-7.055430859327316284e-02
-7.057338021695613861e-03,-3.639257326722145081e-02
-6.811665743589401245e-02,5.453211255371570587e-03
-1.245359331369400024e-01,-6.093832850456237793e-02
-1.060020551085472107e-01,7.499597966670989990e-02
-3.295499086380004883e-02,1.349005252122879028e-01
3.995948063675314188e-04,5.763265118002891541e-02
5.969077348709106445e-02,4.446248337626457214e-02
3.947304189205169678e-02,-3.389901667833328247e-02
-9.085430949926376343e-02,-5.441520363092422485e-02
-1.340676993131637573e-01,-9.956147521734237671e-03
1.340276151895523071e-01,-1.452594995498657227e-01
-6.266552954912185669e-02,-4.298255592584609985e-02
7.703355699777603149e-02,-4.036132246255874634e-02
-9.200009703636169434e-02,-1.124566197395324707e-01
-6.755569577217102051e-02,4.074166342616081238e-02
4.232802987098693848e-02,-1.960346996784210205e-01
-9.660078585147857666e-02,2.703912556171417236e-02
-8.755891770124435425e-02,8.835995197296142578e-02
1.588448509573936462e-02,-3.633041307330131531e-02
-1.487322151660919189e-03,1.867920607328414917e-01
-4.199663549661636353e-02,-1.707785576581954956e-01
1.109678819775581360e-01,-7.439493387937545776e-02
-1.186128631234169006e-01,2.644326537847518921e-02
1.363909989595413208e-01,-7.105562835931777954e-02
7.690926641225814819e-02,8.535652607679367065e-02
1.786344125866889954e-02,2.492896914482116699e-01
1.131181493401527405e-01,-2.841032482683658600e-02
3.661115840077400208e-02,1.590537726879119873e-01
6.463669240474700928e-02,9.039115905761718750e-02
8.592069149017333984e-03,-7.642774283885955811e-02
1.221121251583099365e-01,-7.819348573684692383e-02
5.483416095376014709e-02,1.922459714114665985e-02
-1.784818433225154877e-02,8.729274384677410126e-03
-2.014032192528247833e-02,-5.033880099654197693e-02
6.791318207979202271e-02,-3.663520142436027527e-02
3.956191986799240112e-02,-1.986067183315753937e-02
6.463372707366943359e-02,1.093199253082275391e-01
-2.405595441814512014e-04,1.497783698141574860e-03
7.584609836339950562e-02,9.476076066493988037e-02
-1.366903726011514664e-02,1.650394946336746216e-01
-5.602462682873010635e-03,-1.201154589653015137e-01
-1.699119620025157928e-02,-1.610952168703079224e-01
-2.687318995594978333e-02,1.082121655344963074e-01
-2.643532492220401764e-02,-1.102508902549743652e-01
4.871117882430553436e-03,1.062414124608039856e-01
-5.563292652368545532e-02,-8.917215466499328613e-02
1.145778223872184753e-01,-8.902665227651596069e-02
1.074920520186424255e-01,-4.425661265850067139e-02
-4.909329116344451904e-02,-9.879384934902191162e-02
5.910111218690872192e-02,-1.335610002279281616e-01
-8.785646408796310425e-02,4.850509390234947205e-02
-1.077269092202186584e-01,-1.575724929571151733e-01
-1.031326949596405029e-01,-3.381345793604850769e-02
1.133978962898254395e-01,1.250215917825698853e-01
4.095499590039253235e-02,-1.199626848101615906e-01
-2.846075035631656647e-02,-1.244818568229675293e-01
4.089083522558212280e-02,4.921746626496315002e-02
4.935663565993309021e-02,1.292531639337539673e-01
1.010214723646640778e-02,9.136387705802917480e-02
-8.663122355937957764e-02,4.272309690713882446e-02
2.127255499362945557e-02,1.243593841791152954e-01
-1.119183525443077087e-01,5.395199358463287354e-02
-1.155327782034873962e-01,1.302562505006790161e-01
1.264689415693283081e-01,1.367795467376708984e-01
1.371507942676544189e-01,-1.160045936703681946e-01
-5.169497430324554443e-02,-8.992219343781471252e-03
1.579422056674957275e-01,5.968043580651283264e-02
-8.514947444200515747e-02,1.170030012726783752e-01
-5.498599726706743240e-03,1.943483203649520874e-02
1.055756509304046631e-01,1.628968715667724609e-01
-1.339581608772277832e-02,9.815433621406555176e-02
-1.500575691461563110e-01,8.403773605823516846e-02
-2.409025793895125389e-03,1.051217988133430481e-01
7.814689725637435913e-02,4.520205035805702209e-02
-9.271001815795898438e-02,-3.769962815567851067e-03
7.454516738653182983e-02,5.986628308892250061e-02
1.482778042554855347e-02,-1.134246215224266052e-01
1.708865351974964142e-02,-1.895392686128616333e-02
-1.148181706666946411e-01,1.215706393122673035e-01
-5.677487701177597046e-02,9.087219089269638062e-02
-6.317193806171417236e-02,1.116476133465766907e-01
1.621438190340995789e-02,9.780600666999816895e-02
-6.462036166340112686e-03,-1.149144247174263000e-01
1.147335097193717957e-01,1.025797575712203979e-01
-3.949933126568794250e-02,-4.354671761393547058e-02
-5.511555820703506470e-03,5.915637314319610596e-02
8.569904416799545288e-02,-3.176597878336906433e-02
-1.462257504463195801e-01,5.652607232332229614e-02
-1.596168875694274902e-01,1.587752252817153931e-01
-4.839644953608512878e-02,-5.671639740467071533e-02
-7.386358827352523804e-02,-3.981047123670578003e-02
6.125784292817115784e-02,-7.808448374271392822e-02
-1.342015713453292847e-01,-6.496971100568771362e-02
1.224592402577400208e-01,1.343767624348402023e-03
9.889157116413116455e-02,-3.043127432465553284e-02
-1.845645755529403687e-01,1.988898813724517822e-01
2.659785095602273941e-03,-1.216812059283256531e-02
-6.473907083272933960e-02,-1.784275053068995476e-03
3.992844745516777039e-02,4.544226825237274170e-02
-7.964505255222320557e-02,1.143008768558502197e-01
-3.269134834408760071e-02,1.015353854745626450e-02
-3.334819525480270386e-02,1.054353788495063782e-01
-1.038874164223670959e-01,-5.989951081573963165e-03
-6.571567803621292114e-02,6.745629012584686279e-02
1.308934688568115234e-01,-2.080249227583408356e-02
4.095328226685523987e-02,-1.522168517112731934e-01
-9.129671007394790649e-02,6.986868381500244141e-02
1.203825473785400391e-01,-6.812337785959243774e-02
2.340146899223327637e-02,-4.888001829385757446e-02
-8.922564238309860229e-02,1.494109630584716797e-01
1.207090094685554504e-01,8.342711627483367920e-02
5.148066580295562744e-02,1.132981181144714355e-01
-5.873870570212602615e-03,-1.375196427106857300e-01
1.027198284864425659e-01,-7.821819931268692017e-02
-1.170372869819402695e-02,-1.371435727924108505e-02
-1.334592252969741821e-01,-5.547484010457992554e-02
1.265697777271270752e-01,-4.758762568235397339e-02
1.300342381000518799e-02,1.367203593254089355e-01
8.323136717081069946e-03,4.657197371125221252e-02
6.497102230787277222e-02,-6.641005724668502808e-02
-7.328825443983078003e-02,-7.465751469135284424e-02
-7.760885357856750488e-02,4.099653288722038269e-02
-3.248251602053642273e-02,4.537651687860488892e-02
5.499900877475738525e-02,-5.169850960373878479e-02
4.068795964121818542e-02,-5.762923508882522583e-02
-6.430096924304962158e-02,-6.477098166942596436e-02
1.117183715105056763e-01,-2.987391687929630280e-02
-6.594457477331161499e-02,4.824261367321014404e-02
6.419166456907987595e-03,-6.661112606525421143e-02
9.211408346891403198e-02,-1.012731492519378662e-01
7.457694411277770996e-02,5.315078049898147583e-02
1.471488177776336670e-01,5.162911117076873779e-02
1.255475431680679321e-01,-6.468396633863449097e-02
7.028660178184509277e-02,6.317906081676483154e-02
6.101448833942413330e-02,-5.820982158184051514e-03
5.185473710298538208e-02,1.977524608373641968e-01
-5.274888500571250916e-02,9.746763855218887329e-02
1.137511990964412689e-02,-3.813808783888816833e-02
1.166453585028648376e-01,1.188727170228958130e-01
-1.018345281481742859e-01,9.517195075750350952e-02
-6.978692114353179932e-02,-4.644874855875968933e-02
-8.642705529928207397e-02,4.137820750474929810e-02
-3.431515023112297058e-02,-3.779764054343104362e-03
-9.353909641504287720e-02,9.649010002613067627e-02
-1.307527571916580200e-01,1.573999971151351929e-01
-4.862806573510169983e-02,9.651572257280349731e-02
6.773738563060760498e-02,-7.942610979080200195e-02
1.191687434911727905e-01,1.537898778915405273e-01
7.172528654336929321e-02,5.500361323356628418e-03
-3.703733161091804504e-02,2.523155696690082550e-02
-1.170941665768623352e-01,-7.490912824869155884e-02
1.617698185145854950e-02,9.401420503854751587e-02
7.720569521188735962e-02,-5.355137959122657776e-02
8.460978418588638306e-02,-6.797914952039718628e-02
-9.991387277841567993e-02,3.446294739842414856e-02
-3.033925220370292664e-02,-1.166400965303182602e-03
-2.755409292876720428e-02,-2.691035903990268707e-02
-5.313680693507194519e-02,-7.377582043409347534e-02
-2.432409673929214478e-02,-3.248912096023559570e-02
-5.309538170695304871e-02,-7.254400104284286499e-02
3.613912314176559448e-02,-4.290894791483879089e-02
8.091410994529724121e-02,8.300727605819702148e-02
4.284433647990226746e-02,3.412525635212659836e-03
1.324538141489028931e-01,1.080254837870597839e-01
6.230275332927703857e-02,-5.771842971444129944e-02
-1.141604259610176086e-01,1.068337932229042053e-01
-3.228906309232115746e-03,2.259471826255321503e-02
-3.206752613186836243e-02,-8.759319037199020386e-02
-2.668367698788642883e-02,9.318181127309799194e-02
-5.413071438670158386e-02,-4.585334286093711853e-02
1.078104823827743530e-01,-1.040546521544456482e-01
2.574458718299865723e-03,1.496351659297943115e-01
-5.830246210098266602e-02,1.538632661104202271e-01
8.549456298351287842e-02,-1.355086416006088257e-01
3.809469193220138550e-02,5.409413576126098633e-02
-1.710417568683624268e-01,-2.067572325468063354e-01
5.255524814128875732e-02,-3.891075728461146355e-03
-6.420735269784927368e-03,-1.924751400947570801e-01
3.698423877358436584e-02,-2.159508913755416870e-01
-1.716844439506530762e-01,-1.407505422830581665e-01
-5.057941749691963196e-02,8.772780746221542358e-02
2.730110846459865570e-02,2.744864672422409058e-02
-1.116483807563781738e-01,-9.103991836309432983e-02
-2.301258267834782600e-03,-4.052472859621047974e-02
-1.259854286909103394e-01,-1.276515126228332520e-01
-1.174802780151367188e-01,-5.279008299112319946e-02
1.086993291974067688e-01,1.830088160932064056e-02
-6.670168787240982056e-02,-3.552479296922683716e-02
1.484961807727813721e-01,-1.236952692270278931e-01
-3.283409401774406433e-02,-5.937793478369712830e-02
3.682863712310791016e-02,-9.157808125019073486e-02
-7.481569796800613403e-02,-1.358215808868408203e-01
3.942321240901947021e-02,-2.329886145889759064e-02
6.330393999814987183e-02,6.641985476016998291e-02
1.199018135666847229e-01,1.153105199337005615e-01
-4.213283956050872803e-02,-5.315705388784408569e-02
9.823454916477203369e-02,-9.057015180587768555e-02
7.033561170101165771e-02,3.770694136619567871e-02
-2.747132442891597748e-02,-1.650480926036834717e-01
-4.150733724236488342e-02,-6.116679310798645020e-02
-2.386637404561042786e-02,6.160673126578330994e-02
5.677277967333793640e-02,-4.346749931573867798e-02
1.169254630804061890e-01,4.425820708274841309e-02
1.447666138410568237e-01,-1.385722868144512177e-02
3.121387399733066559e-02,-8.361210674047470093e-02
-1.184397786855697632e-01,7.119898498058319092e-02
4.405334591865539551e-02,-8.022429049015045166e-02
-3.263450413942337036e-02,5.469654127955436707e-02
-1.799641549587249756e-02,4.464831203222274780e-02
4.115527868270874023e-02,7.730161398649215698e-02
-1.473294291645288467e-02,-7.751556579023599625e-03
4.639861360192298889e-02,6.171342357993125916e-02
-1.646294444799423218e-01,1.695068180561065674e-01
-1.408522427082061768e-01,3.358435258269309998e-02
-9.253756701946258545e-02,1.047158986330032349e-01
3.642674162983894348e-02,-7.952176779508590698e-02
-1.425858736038208008e-01,1.472258269786834717e-01
-1.234353333711624146e-01,-1.170311355963349342e-03
-1.708235405385494232e-02,1.043551936745643616e-01
4.462096467614173889e-02,2.425369992852210999e-02
1.109851673245429993e-01,3.291954100131988525e-02
-2.051386423408985138e-02,-2.429597638547420502e-02
4.035504907369613647e-02,-1.934224367141723633e-01
-1.186896413564682007e-01,-8.365261554718017578e-02
2.220155112445354462e-02,1.910924352705478668e-02
5.008058249950408936e-02,1.987219415605068207e-02
8.180350065231323242e-02,4.880680516362190247e-02
-3.972263261675834656e-02,1.901637203991413116e-02
1.013409420847892761e-01,-1.490770876407623291e-01
-1.987068355083465576e-02,1.710744649171829224e-01
1.224425900727510452e-02,4.091667011380195618e-02
-5.797868967056274414e-02,-6.866196542978286743e-02
-1.157814934849739075e-01,-1.510428041219711304e-01
1.169762015342712402e-01,-1.256279945373535156e-01
2.570123597979545593e-02,9.937833994626998901e-02
7.100380212068557739e-02,8.015353977680206299e-02
6.058812513947486877e-02,-6.260037422180175781e-02
-4.479441046714782715e-02,8.358202874660491943e-02
-1.199726611375808716e-01,1.599579900503158569e-01
-3.979553282260894775e-02,4.999594017863273621e-02
-3.976901061832904816e-03,-9.556581079959869385e-02
-7.694080471992492676e-02,9.092640876770019531e-02
7.774876058101654053e-02,-1.027771532535552979e-01
8.196633309125900269e-02,8.646296709775924683e-02
-7.649527490139007568e-02,3.386617451906204224e-02
3.665967658162117004e-02,-5.435287207365036011e-02
-1.345722824335098267e-01,-1.052231807261705399e-02
3.118851035833358765e-02,1.363459625281393528e-03
5.735216196626424789e-03,-8.766786009073257446e-02
2.444182988256216049e-03,-1.704192459583282471e-01
-1.065385863184928894e-01,6.691353395581245422e-03
1.047313660383224487e-01,-1.606740355491638184e-01
9.789900481700897217e-02,-3.614679351449012756e-02
6.240618228912353516e-02,1.783184893429279327e-02
1.479659825563430786e-01,-9.379211068153381348e-02
-6.292924284934997559e-02,1.313971728086471558e-02
6.547226011753082275e-02,1.248409152030944824e-01
5.935088731348514557e-03,6.586614251136779785e-02
1.081631407141685486e-01,6.587475538253784180e-02
-1.233650594949722290e-01,-8.243854343891143799e-02
8.426301181316375732e-02,-7.480552420020103455e-03
1.497773826122283936e-01,-1.086051613092422485e-01
-6.857921928167343140e-02,1.225147023797035217e-02
-1.343839168548583984e-01,1.867638714611530304e-02
-2.059470862150192261e-02,-1.148092467337846756e-02
3.267310559749603271e-02,7.193593680858612061e-02
1.707308739423751831e-01,-5.614591762423515320e-02
-1.750317811965942383e-01,-7.020809687674045563e-03
-1.021250989288091660e-02,3.853302076458930969e-02
-1.560329794883728027e-01,-1.774958707392215729e-02
6.339184939861297607e-02,1.358160525560379028e-01
-9.343468397855758667e-02,7.878095842897891998e-03
9.196891635656356812e-02,1.658785939216613770e-01
-1.835398375988006592e-01,-1.303766667842864990e-02
1.107342019677162170e-01,4.411410912871360779e-02
1.702054440975189209e-01,-4.769552871584892273e-02
-6.167136132717132568e-02,-1.138861179351806641e-01
4.471970349550247192e-02,-7.290224730968475342e-02
-5.193298310041427612e-02,-4.830300435423851013e-02
8.271024376153945923e-02,1.893522404134273529e-02
1.490490138530731201e-02,-1.313993930816650391e-01
-3.535567596554756165e-02,-8.471702784299850464e-02
3.137041628360748291e-02,-4.694113507866859436e-02
-3.352181985974311829e-03,-8.149602450430393219e-03
-1.314356029033660889e-01,1.438969820737838745e-01
1.460778415203094482e-01,1.537657692097127438e-03
-1.652282774448394775e-01,4.254120215773582458e-02
-1.215775012969970703e-01,3.966456279158592224e-02
-1.331488639116287231e-01,-9.913981705904006958e-02
-6.702280137687921524e-03,-3.291153907775878906e-02
-1.644337177276611328e-01,-3.636783361434936523e-02
3.617190197110176086e-02,-8.631015568971633911e-02
-9.840308874845504761e-02,3.389967232942581177e-02
-5.789669603109359741e-02,2.409650757908821106e-02
1.009662523865699768e-01,2.805391140282154083e-02
7.884787768125534058e-02,-2.012156322598457336e-02
4.372571129351854324e-03,2.285731583833694458e-02
2.013393864035606384e-02,-1.199291348457336426e-01
-5.498027428984642029e-02,-3.231055289506912231e-02
3.186991810798645020e-02,8.137451112270355225e-02
-8.367008715867996216e-02,1.373195052146911621e-01
1.171798910945653915e-02,-1.362378597259521484e-01
2.898915112018585205e-02,-2.357963100075721741e-02
7.897908985614776611e-02,-3.687464632093906403e-03
-5.525980144739151001e-03,-2.379322424530982971e-02
6.053322181105613708e-02,4.758111014962196350e-02
1.194152534008026123e-01,5.393642559647560120e-02
4.942177236080169678e-02,1.831338554620742798e-02
9.814394870772957802e-04,2.203177660703659058e-02
9.484975039958953857e-02,1.029075160622596741e-01
-1.402263939380645752e-01,-8.780197054147720337e-02
1.522168666124343872e-01,-5.369141697883605957e-02
3.929713368415832520e-02,3.737550601363182068e-02
-6.723541021347045898e-02,-6.912545859813690186e-02
-4.821255058050155640e-02,-6.549414247274398804e-02
-1.089494377374649048e-01,-1.082465350627899170e-01
-1.764620770700275898e-03,-9.990648925304412842e-02
6.825111806392669678e-03,5.402494594454765320e-02
-1.225138902664184570e-01,-8.683762699365615845e-02
-9.198619425296783447e-02,3.117243293672800064e-03
-1.361010074615478516e-01,-2.317537553608417511e-02
-1.013735160231590271e-01,7.075361907482147217e-02
1.382480412721633911e-01,-6.527227163314819336e-02
-3.278592973947525024e-02,9.365475177764892578e-02
-1.585613042116165161e-01,-1.298420280218124390e-01
1.115546934306621552e-02,6.864570826292037964e-02
-3.693317249417304993e-02,4.432081803679466248e-02
9.839431941509246826e-02,3.352859243750572205e-02
6.794784963130950928e-02,1.302671432495117188e-01
2.429494261741638184e-02,-1.562862098217010498e-01
-2.444853447377681732e-02,-3.551663085818290710e-02
-1.523682177066802979e-01,3.836994618177413940e-02
1.609995365142822266e-01,-3.033556230366230011e-02
-1.016883365809917450e-02,-9.005015343427658081e-02
5.694407224655151367e-02,1.471499353647232056e-01
8.659400045871734619e-02,-8.121418207883834839e-02
-7.744445651769638062e-02,8.145364373922348022e-02
3.289082646369934082e-02,1.135452315211296082e-01
-1.695477962493896484e-01,-7.686005532741546631e-02
6.494003534317016602e-02,1.202796474099159241e-01
-5.596659332513809204e-02,4.347286373376846313e-02
-2.698346972465515137e-02,5.321851372718811035e-02
5.032325163483619690e-02,-1.248642057180404663e-01
4.410435259342193604e-02,1.689573526382446289e-01
-1.596944183111190796e-01,3.409304842352867126e-02
1.377458125352859497e-01,-3.819143399596214294e-02
-5.825300887227058411e-02,2.487323060631752014e-02
5.872137844562530518e-02,-7.578987628221511841e-02
-9.051656723022460938e-02,-1.599125862121582031e-01
-3.039245959371328354e-03,-3.499646112322807312e-02
8.255483955144882202e-02,7.923330366611480713e-02
-1.791648566722869873e-02,4.962799698114395142e-02
-1.485760957002639771e-01,-6.212265416979789734e-02
8.808995038270950317e-02,6.121106445789337158e-02
-9.623555094003677368e-02,1.092208996415138245e-01
-7.627841085195541382e-02,-6.835000962018966675e-02
-5.186673253774642944e-02,1.080724373459815979e-01
4.639856633730232716e-04,3.345097601413726807e-02
-8.469168841838836670e-02,1.444614827632904053e-01
9.113049507141113281e-02,1.796042919158935547e-01
5.466529354453086853e-02,9.830399602651596069e-02
-5.136863887310028076e-02,7.296351343393325806e-02
1.673227548599243164e-02,-2.295001782476902008e-02
-1.201424524188041687e-01,1.242205500602722168e-02
4.235808178782463074e-02,1.766323894262313843e-01
1.372296512126922607e-01,-7.505240291357040405e-02
9.916212409734725952e-02,-4.072357714176177979e-02
-6.067660078406333923e-02,-6.662041693925857544e-02
-1.051906198263168335e-01,1.386019885540008545e-01
7.206018269062042236e-02,4.072516690939664841e-03
-9.067691862583160400e-03,2.130859903991222382e-02
-7.657219190150499344e-03,-1.219502314925193787e-01
2.384708449244499207e-02,9.958464652299880981e-02
6.910798698663711548e-02,-1.162985563278198242e-01
-3.444653749465942383e-02,4.269111528992652893e-02
-8.591600693762302399e-03,-2.449426241219043732e-02
-7.733178790658712387e-04,-1.339013278484344482e-01
-8.993867784738540649e-02,1.317863464355468750e-01
-7.564146071672439575e-04,1.922830343246459961e-01
-5.585953127592802048e-03,-5.585060268640518188e-02
1.994509622454643250e-02,1.479164958000183105e-01
-7.095680385828018188e-02,-1.022617518901824951e-01
-1.558242142200469971e-01,-1.053930670022964478e-01
-2.297926507890224457e-02,4.928632825613021851e-02
-7.830930501222610474e-02,9.403038024902343750e-02
-3.847440704703330994e-02,2.513850294053554535e-02
-3.360087797045707703e-02,-3.092066198587417603e-02
5.274262279272079468e-02,-1.961645670235157013e-02
-1.220286712050437927e-01,-1.273894160985946655e-01
-5.902283266186714172e-02,9.931773878633975983e-03
-1.026013046503067017e-01,1.260067671537399292e-01
-7.932192832231521606e-02,7.785416394472122192e-02
7.126420736312866211e-02,4.178832098841667175e-02
1.963227242231369019e-02,1.793345957994461060e-01
-3.298493102192878723e-02,-4.053349420428276062e-02
2.324251271784305573e-02,5.470230802893638611e-02
-2.610099688172340393e-02,-1.075629293918609619e-01
9.594339877367019653e-02,1.274044043384492397e-03
